{

"layer1":{

"input": "var input",
"kernel":[3,3],
"operation":"Conv",
"pad":[ 0,0,1,1,0,0,1,1],
"stride":[1,1],
"bias":[
0.2223384976387024,
-1.223492980003357,
-0.431613564491272,
1.7095938920974731,
-0.9531517624855042,
1.3472893238067627,
1.2199217081069946,
2.5964548587799072,
-0.337785005569458,
0.5560829639434814,
-1.086020827293396,
-0.9751343727111816,
0.5381726622581482,
0.2781600058078766,
-1.6428276300430298,
-2.145036220550537,
-0.6990824937820435,
-2.108346700668335,
0.916194498538971,
-2.1105282306671143,
0.9571858048439026,
-1.2528595924377441,
0.9992230534553528,
0.15447816252708435,
2.268122673034668,
0.7700371742248535,
-1.3485544919967651,
1.9319263696670532,
1.7689383029937744,
0.952405571937561,
2.268646478652954,
-0.8085518479347229,
0.21891121566295624,
-1.4143610000610352,
-1.7668248414993286,
-0.2823719382286072,
0.7970082759857178,
1.2381434440612793,
-1.8007537126541138,
-0.8609001636505127,
1.8567479848861694,
0.9153832793235779,
-1.3781851530075073,
0.7660988569259644,
-0.9987890124320984,
0.3091548979282379,
1.7719451189041138,
-1.6152769327163696,
-0.7328338623046875,
-1.6287201642990112,
2.085434913635254,
2.025569200515747,
-1.7083929777145386,
1.888608694076538,
-0.33473309874534607,
-0.7555960416793823,
-1.7843058109283447,
0.8281051516532898,
1.0556175708770752,
1.6883254051208496,
-1.2645026445388794,
-0.4456179440021515,
0.23884843289852142,
1.7511019706726074,
0.19460198283195496,
-0.8340943455696106,
-1.2089828252792358,
-2.181516170501709,
-0.11293240636587143,
0.8068571090698242,
-0.9406405687332153,
0.2399822175502777,
-1.6055988073349,
1.2303966283798218,
0.251302570104599,
-0.3830447494983673,
1.2204244136810303,
2.0380449295043945,
0.3953332006931305,
-1.9855718612670898,
-0.8440142869949341,
-1.801192283630371,
-0.5030979514122009,
0.2991275489330292,
-1.031044363975525,
-1.2533173561096191,
1.3320865631103516,
-1.2180516719818115,
0.6324132084846497,
-1.513240933418274,
-1.4276058673858643,
1.0462982654571533,
-2.541027307510376,
0.034448038786649704,
-0.9849647879600525,
-0.21261805295944214,
2.1070172786712646,
0.9469010233879089,
1.2735975980758667,
-1.3335047960281372,
0.43580514192581177,
-2.0212244987487793,
1.2185158729553223,
-0.5992884635925293,
-0.5107395648956299,
-0.15804927051067352,
2.0352630615234375,
-0.9131327867507935,
-1.2230738401412964,
-0.8328447937965393,
1.2963684797286987,
1.725785732269287,
-0.9837952256202698,
-1.766908884048462,
-1.176952838897705,
-0.08582179993391037,
-1.8071911334991455,
0.6681249141693115,
1.193414568901062,
1.6195436716079712,
0.7188352346420288,
-0.07139904052019119,
0.9028403162956238,
1.2261773347854614,
1.8109359741210938,
1.1391485929489136,
1.753268837928772,
0.40423792600631714,
-1.2842315435409546,
1.4672597646713257,
0.9634963870048523,
0.4828585982322693,
1.2140790224075317,
1.9766210317611694,
1.5188899040222168,
1.161030888557434,
-0.5477690100669861,
-0.22989410161972046,
-1.9512842893600464,
1.9944642782211304,
-1.3905166387557983,
1.2645100355148315,
-0.3917832374572754,
-0.20121264457702637,
-1.5088000297546387,
-0.24664558470249176,
2.109203815460205,
-2.180622100830078,
0.11299863457679749,
1.6503628492355347,
-1.371204137802124,
-0.8238250613212585,
1.7414429187774658,
1.1745141744613647,
1.4524308443069458,
-0.009903650730848312,
-1.3867934942245483,
0.04443705454468727,
-0.7357664108276367,
-2.425246238708496
],
"weight":[
[
[
[
0.11158178746700287,
-0.05633926764130592,
-0.0489635169506073
],
[
-0.1718790978193283,
0.0057855830527842045,
-0.042187996208667755
],
[
0.07503549009561539,
0.22408601641654968,
-0.07466938346624374
]
],
[
[
0.04864802584052086,
-0.10780490189790726,
-0.08838199824094772
],
[
-0.0794745609164238,
-0.08347705006599426,
0.212077796459198
],
[
0.04850073531270027,
-0.024838918820023537,
0.10527704656124115
]
],
[
[
0.05957470461726189,
0.21370245516300201,
-0.0832209587097168
],
[
-0.1574513018131256,
-0.21600869297981262,
0.22420671582221985
],
[
-0.10243415832519531,
0.07835287600755692,
-0.059406578540802
]
]
],
[
[
[
0.11159253865480423,
0.06369336694478989,
-0.09319888055324554
],
[
0.08096139132976532,
-0.24053043127059937,
-0.040598586201667786
],
[
0.011626498773694038,
0.030527930706739426,
0.07968385517597198
]
],
[
[
-0.06056620925664902,
0.0388668030500412,
0.13387206196784973
],
[
-0.07192151248455048,
-0.06077534332871437,
0.10114733129739761
],
[
-0.057889845222234726,
-0.07375477254390717,
-0.029651116579771042
]
],
[
[
-0.08661768585443497,
0.056268006563186646,
-0.12302791327238083
],
[
-0.023253876715898514,
0.25799089670181274,
-0.10866306722164154
],
[
0.05436873808503151,
-0.06117244437336922,
0.06222523748874664
]
]
],
[
[
[
0.07257652282714844,
0.052032098174095154,
-0.0753960981965065
],
[
0.11419081687927246,
-0.16163156926631927,
0.06547872722148895
],
[
-0.09269924461841583,
-0.13478516042232513,
0.05469590798020363
]
],
[
[
0.0010016250889748335,
-0.09722456336021423,
0.07326053082942963
],
[
0.15769238770008087,
-0.05006837099790573,
-0.003824208863079548
],
[
0.15264523029327393,
-0.1655198037624359,
0.0791078507900238
]
],
[
[
-0.0662589743733406,
0.08920250833034515,
-0.09560961276292801
],
[
-0.15450793504714966,
0.013473829254508018,
0.06612381339073181
],
[
-0.12085608392953873,
0.223849818110466,
0.03193917125463486
]
]
],
[
[
[
-0.0038922142703086138,
0.07712382078170776,
-0.028392700478434563
],
[
-0.20174437761306763,
-0.06801848858594894,
0.030122479423880577
],
[
0.026141641661524773,
0.11764051020145416,
-0.023565467447042465
]
],
[
[
0.04882947355508804,
-0.0053623574785888195,
-0.007201391737908125
],
[
0.07661513239145279,
0.09485279768705368,
0.008690283633768559
],
[
0.029254773631691933,
-0.1545914262533188,
0.08033005148172379
]
],
[
[
0.025684479624032974,
-0.09898421913385391,
0.06723345816135406
],
[
0.08758240193128586,
-0.051004886627197266,
-0.05697866529226303
],
[
-0.08493529260158539,
0.06428319215774536,
-0.013674928806722164
]
]
],
[
[
[
-0.11076120287179947,
0.11859813332557678,
-0.013506099581718445
],
[
0.026587767526507378,
-0.022196924313902855,
0.17994993925094604
],
[
0.005505744833499193,
-0.054516471922397614,
-0.10381334275007248
]
],
[
[
0.05511775612831116,
0.1389147788286209,
-0.020818550139665604
],
[
-0.1751844733953476,
-0.056666526943445206,
0.006668250076472759
],
[
0.01587127335369587,
-0.03462683781981468,
0.08384530991315842
]
],
[
[
0.05516231432557106,
-0.05228406563401222,
-0.09049516916275024
],
[
0.11825332790613174,
-0.15381309390068054,
-0.07767321914434433
],
[
0.0881841853260994,
0.20025354623794556,
-0.051129188388586044
]
]
],
[
[
[
0.12924902141094208,
0.04017334058880806,
-0.02574094943702221
],
[
-0.014762564562261105,
-0.3056163787841797,
0.11496984958648682
],
[
0.017657000571489334,
-0.1191200241446495,
0.11790858954191208
]
],
[
[
-0.10804305225610733,
-0.09400400519371033,
-0.07299482077360153
],
[
0.020211851224303246,
0.2555330991744995,
-0.15023881196975708
],
[
-0.0853629857301712,
0.2710249125957489,
-0.051110368221998215
]
],
[
[
0.05726802721619606,
-0.1260562539100647,
0.1422186940908432
],
[
-0.12069910019636154,
0.2841643691062927,
-0.03905895724892616
],
[
-0.008028317242860794,
-0.17399603128433228,
0.016735101118683815
]
]
],
[
[
[
-0.029700152575969696,
-0.18427887558937073,
0.14309661090373993
],
[
-0.1596267968416214,
0.17838358879089355,
-0.04923732951283455
],
[
0.03786060959100723,
-0.15013647079467773,
0.1268041431903839
]
],
[
[
0.13805243372917175,
0.12194758653640747,
-0.11491800844669342
],
[
0.08582647144794464,
0.13480709493160248,
-0.037646856158971786
],
[
-0.1838965117931366,
-0.12572941184043884,
0.0958375558257103
]
],
[
[
-0.13621442019939423,
0.022531064227223396,
-0.041663751006126404
],
[
0.02816483937203884,
0.021952299401164055,
-0.07844498753547668
],
[
0.1733480542898178,
0.11063485592603683,
-0.1006842777132988
]
]
],
[
[
[
0.08283695578575134,
-0.20678965747356415,
-0.0570811852812767
],
[
-0.1112387627363205,
0.12292546033859253,
0.08928342163562775
],
[
0.016293004155158997,
0.03769082948565483,
0.01954694278538227
]
],
[
[
-0.16299055516719818,
-0.002216300228610635,
0.130442276597023
],
[
0.10149285942316055,
-0.17492298781871796,
-0.09857355803251266
],
[
0.10332372039556503,
0.10847455263137817,
0.08042532950639725
]
],
[
[
0.07340121269226074,
0.13956786692142487,
-0.05243004485964775
],
[
0.006112248171120882,
0.1350019872188568,
-0.03814755752682686
],
[
-0.11165487766265869,
-0.14045624434947968,
-0.11761680990457535
]
]
],
[
[
[
0.049635399132966995,
-0.2436579167842865,
0.05184819549322128
],
[
0.044421784579753876,
0.24103029072284698,
-0.009070238098502159
],
[
-0.01938163861632347,
-0.1805257797241211,
0.10376535356044769
]
],
[
[
-0.11239246279001236,
0.12990136444568634,
-0.10399772971868515
],
[
0.0016829551896080375,
-0.005841691512614489,
-0.15109188854694366
],
[
-0.020584359765052795,
0.16723427176475525,
0.04075120389461517
]
],
[
[
0.07711972296237946,
0.2148645520210266,
-0.06117485836148262
],
[
0.0033903182484209538,
-0.29198822379112244,
0.13386525213718414
],
[
-0.004314898978918791,
-0.027348294854164124,
-0.036612819880247116
]
]
],
[
[
[
0.006125720217823982,
-0.10304439812898636,
0.040638070553541183
],
[
0.08787519484758377,
-0.11928947269916534,
0.04792124405503273
],
[
-0.04043857008218765,
0.013829496689140797,
0.05272353067994118
]
],
[
[
0.08221378922462463,
0.04756685346364975,
-0.043790850788354874
],
[
0.0786442682147026,
-0.009121454320847988,
-0.1890498697757721
],
[
0.054701536893844604,
0.14109890162944794,
-0.10252083837985992
]
],
[
[
-0.05671273544430733,
0.00296375947073102,
-0.03260380029678345
],
[
-0.17365378141403198,
0.16964365541934967,
0.1541171818971634
],
[
0.03406089171767235,
-0.16620874404907227,
0.056419290602207184
]
]
],
[
[
[
0.024389132857322693,
-0.11369460821151733,
0.023728467524051666
],
[
-0.052666615694761276,
0.04580081254243851,
0.05294569209218025
],
[
-0.07922452688217163,
0.21024323999881744,
-0.07756949216127396
]
],
[
[
0.09937041252851486,
-0.18002508580684662,
-0.09694251418113708
],
[
0.07721482962369919,
-0.13124962151050568,
0.11334247142076492
],
[
0.08835501968860626,
-0.019558578729629517,
0.028597624972462654
]
],
[
[
-0.1034083142876625,
0.23924760520458221,
0.07200152426958084
],
[
-0.09276194870471954,
0.1165761798620224,
-0.17868195474147797
],
[
-0.04192320257425308,
-0.17733630537986755,
0.1207914650440216
]
]
],
[
[
[
0.008035793900489807,
0.09353502839803696,
0.0686039850115776
],
[
-0.13528147339820862,
-0.06310809403657913,
-0.0813419371843338
],
[
0.10836566984653473,
-0.03633417189121246,
0.09444110840559006
]
],
[
[
-0.10860544443130493,
-0.07868453860282898,
-0.04599207639694214
],
[
0.09880443662405014,
0.14394307136535645,
-0.07219264656305313
],
[
0.01861448585987091,
-0.11220349371433258,
0.13127447664737701
]
],
[
[
0.09141518920660019,
0.04635428264737129,
-0.05076974630355835
],
[
0.08171733468770981,
0.01540383417159319,
0.0811777114868164
],
[
-0.09495353698730469,
-0.06501629948616028,
-0.10866589844226837
]
]
],
[
[
[
0.04191336780786514,
-0.12219617515802383,
0.09379829466342926
],
[
-0.0033263429068028927,
0.029650457203388214,
0.2042059451341629
],
[
0.09663625061511993,
-0.16277004778385162,
-0.09698589891195297
]
],
[
[
-0.08360598981380463,
-0.024581480771303177,
0.029817070811986923
],
[
0.18665246665477753,
-0.17202381789684296,
-0.14905640482902527
],
[
-0.0014648194191977382,
0.015898581594228745,
0.06176311522722244
]
],
[
[
0.03763324022293091,
0.055359262973070145,
-0.04794757813215256
],
[
-0.19366933405399323,
0.20291994512081146,
-0.09025290608406067
],
[
-0.043693799525499344,
0.15933828055858612,
0.014083661139011383
]
]
],
[
[
[
-0.13615646958351135,
0.10321857035160065,
0.028796201571822166
],
[
0.15691770613193512,
-0.111110620200634,
-0.11048143357038498
],
[
0.05032825097441673,
-0.09123092144727707,
0.16055788099765778
]
],
[
[
0.03425644710659981,
-0.12882395088672638,
0.00906351674348116
],
[
-0.052082668989896774,
0.07093487679958344,
-0.03134988993406296
],
[
-0.08278527855873108,
0.10837823152542114,
-0.03348773345351219
]
],
[
[
0.009561732411384583,
0.0351119264960289,
0.08635401725769043
],
[
0.009231572970747948,
0.12061037868261337,
-0.014802100136876106
],
[
-0.02115294709801674,
0.019969994202256203,
-0.12573687732219696
]
]
],
[
[
[
0.0771922692656517,
-0.18389678001403809,
0.10948361456394196
],
[
-0.014742117375135422,
0.060267314314842224,
-0.1553758829832077
],
[
0.07272353023290634,
0.050079040229320526,
-0.06445063650608063
]
],
[
[
-0.07749370485544205,
0.037732236087322235,
-0.03553486242890358
],
[
0.0034151871223002672,
0.13262467086315155,
0.08376862853765488
],
[
-0.040871910750865936,
-0.17485512793064117,
-0.000326508074067533
]
],
[
[
-0.051798708736896515,
0.1360030323266983,
-0.11319947987794876
],
[
-0.11182516813278198,
0.19880560040473938,
0.14293281733989716
],
[
-0.06318056583404541,
0.06669937074184418,
-0.08723447471857071
]
]
],
[
[
[
-0.03590983897447586,
0.06860612332820892,
-0.06513809412717819
],
[
-0.019859299063682556,
0.08977070450782776,
-0.01779792457818985
],
[
-0.008257696405053139,
-0.06940602511167526,
0.053821761161088943
]
],
[
[
0.027318939566612244,
0.03445051237940788,
0.00697375787422061
],
[
0.12185535579919815,
0.05469570308923721,
0.11111897230148315
],
[
-0.1317145675420761,
-0.005375073291361332,
-0.06396548449993134
]
],
[
[
0.045196495950222015,
-0.08769044280052185,
0.09595389664173126
],
[
-0.10219265520572662,
-0.19612783193588257,
0.06471584737300873
],
[
0.13255152106285095,
0.04428662359714508,
-0.08004681020975113
]
]
],
[
[
[
0.12118339538574219,
-0.09817706048488617,
-0.13047923147678375
],
[
-0.14920498430728912,
-0.009374536573886871,
0.09508490562438965
],
[
0.17921167612075806,
0.07177331298589706,
0.008381075225770473
]
],
[
[
-0.01323722954839468,
0.12629267573356628,
0.03893221914768219
],
[
0.17876467108726501,
0.11498646438121796,
-0.05864597484469414
],
[
-0.15969693660736084,
-0.12679621577262878,
-0.05160742253065109
]
],
[
[
-0.12877587974071503,
-0.018332697451114655,
-0.022420817986130714
],
[
-0.029384568333625793,
-0.21120651066303253,
0.05993076041340828
],
[
-0.09144766628742218,
0.10358390212059021,
0.10466871410608292
]
]
],
[
[
[
-0.0695006400346756,
-0.060601141303777695,
0.06420101225376129
],
[
0.06558851152658463,
-0.07004767656326294,
0.09935939311981201
],
[
-0.10014361888170242,
-0.0636795237660408,
0.08518757671117783
]
],
[
[
0.10465119779109955,
0.07833913713693619,
-0.11874589323997498
],
[
0.11011375486850739,
-0.08093348890542984,
0.0717201977968216
],
[
-0.0917653739452362,
0.014828032813966274,
0.033699799329042435
]
],
[
[
-0.025484004989266396,
-0.05139048770070076,
-0.009013793431222439
],
[
-0.07997068017721176,
0.08173874020576477,
-0.12698081135749817
],
[
0.14458318054676056,
-0.0061526820063591,
0.0053071146830916405
]
]
],
[
[
[
-0.07358501106500626,
-0.12089171260595322,
-0.15231823921203613
],
[
-0.05994191765785217,
-0.011877233162522316,
0.14927151799201965
],
[
0.09617400169372559,
0.16702765226364136,
-0.04952397570014
]
],
[
[
0.1392408013343811,
-0.041349902749061584,
-0.0154127711430192
],
[
-0.11661505699157715,
0.20671918988227844,
-0.1459452509880066
],
[
0.03125126659870148,
-0.1142270639538765,
0.0806070864200592
]
],
[
[
0.09545528143644333,
-0.035876281559467316,
0.20007288455963135
],
[
-0.10635298490524292,
-0.022804219275712967,
-0.0006605368107557297
],
[
-0.018253454938530922,
-0.10743465274572372,
-0.003057105466723442
]
]
],
[
[
[
0.015122894197702408,
-0.11427416652441025,
-0.15992195904254913
],
[
-0.04256243258714676,
0.28341835737228394,
-0.1282552182674408
],
[
-0.026955153793096542,
-0.020614055916666985,
0.11126171797513962
]
],
[
[
0.03883448243141174,
-0.2058333158493042,
0.12309444695711136
],
[
0.006062948144972324,
0.12169720232486725,
0.07152551412582397
],
[
-0.05179939419031143,
0.04561672359704971,
-0.0906028300523758
]
],
[
[
0.02543363906443119,
0.11605709046125412,
-0.000710213091224432
],
[
-0.03236348181962967,
-0.12577249109745026,
0.07980372756719589
],
[
-0.07602236419916153,
0.10043739527463913,
-0.08479849994182587
]
]
],
[
[
[
0.160392165184021,
-0.03802389279007912,
-0.0899907574057579
],
[
0.10248568654060364,
0.023097310215234756,
-0.13703666627407074
],
[
0.050461288541555405,
-0.07806171476840973,
0.024179751053452492
]
],
[
[
0.10000985860824585,
-0.1751341074705124,
-0.03962399810552597
],
[
0.021836575120687485,
0.19916284084320068,
-0.12209584563970566
],
[
-0.05680489540100098,
0.028956016525626183,
-0.013669292442500591
]
],
[
[
-0.1391742080450058,
-0.05913113057613373,
0.0018960776505991817
],
[
0.0931960940361023,
-0.1385495811700821,
-0.11698706448078156
],
[
0.10017871856689453,
0.19044698774814606,
0.09660591930150986
]
]
],
[
[
[
0.12588222324848175,
-0.04452857747673988,
-0.031927336007356644
],
[
-0.12655645608901978,
0.13125303387641907,
-0.030868055298924446
],
[
-0.04827089607715607,
-0.026234600692987442,
0.06613792479038239
]
],
[
[
-0.04244184494018555,
0.0406649187207222,
0.03641798347234726
],
[
0.03690442442893982,
-0.03308704122900963,
-0.17543447017669678
],
[
0.10668257623910904,
0.09508243948221207,
0.08502180874347687
]
],
[
[
-0.12422353029251099,
0.08695665001869202,
-0.08162533491849899
],
[
0.08757534623146057,
0.07055634260177612,
0.1027269959449768
],
[
-0.054592981934547424,
-0.15925851464271545,
-0.06200225651264191
]
]
],
[
[
[
-0.05016200244426727,
-0.19057787954807281,
-0.011141020804643631
],
[
0.0863327607512474,
0.17841605842113495,
0.11767613142728806
],
[
-0.08558601886034012,
0.12371351569890976,
0.00784607045352459
]
],
[
[
0.07839503139257431,
0.18050089478492737,
-0.09662581980228424
],
[
-0.22849330306053162,
0.15814563632011414,
-0.13825534284114838
],
[
-0.07452765852212906,
0.04025237262248993,
0.002021768130362034
]
],
[
[
0.11063931882381439,
-0.09929276257753372,
0.10175149142742157
],
[
0.16483932733535767,
-0.31198593974113464,
-0.1077650710940361
],
[
0.05054193735122681,
0.012920315377414227,
0.024532819166779518
]
]
],
[
[
[
0.0964653268456459,
0.008117090910673141,
-0.013577494770288467
],
[
-0.10428812354803085,
-0.0959908589720726,
0.014007234945893288
],
[
-0.006100145634263754,
0.019343387335538864,
0.08383837342262268
]
],
[
[
-0.024104274809360504,
0.002985354047268629,
0.06805690377950668
],
[
-0.08632370829582214,
-0.21704871952533722,
0.07110529392957687
],
[
-0.056172702461481094,
0.022592831403017044,
-0.004795038606971502
]
],
[
[
-0.13971886038780212,
-0.12738505005836487,
0.08171673119068146
],
[
0.19439174234867096,
-0.11571519821882248,
0.15050731599330902
],
[
0.09864718466997147,
-0.08220640569925308,
0.05509451404213905
]
]
],
[
[
[
-0.09304215013980865,
0.13703812658786774,
-0.13535720109939575
],
[
-0.13972893357276917,
0.15019693970680237,
-0.08323223888874054
],
[
0.09466993808746338,
-0.12156090885400772,
0.022850383073091507
]
],
[
[
-0.07728630304336548,
0.14164143800735474,
0.04169889912009239
],
[
0.030507205054163933,
-0.1976672261953354,
0.1012713834643364
],
[
0.04640556126832962,
0.028956495225429535,
0.10855603218078613
]
],
[
[
0.14433543384075165,
-0.2030356526374817,
0.044674068689346313
],
[
0.031101087108254433,
0.07425384223461151,
-0.060701560229063034
],
[
-0.09834030270576477,
0.08402757346630096,
-0.06845033913850784
]
]
],
[
[
[
-0.06171169504523277,
0.1424790471792221,
-0.136928990483284
],
[
-0.07880890369415283,
-0.11588752269744873,
0.11277548223733902
],
[
0.13564954698085785,
-0.026531178504228592,
-0.034882981330156326
]
],
[
[
0.09289640933275223,
-0.12086234241724014,
0.027319753542542458
],
[
0.11825308948755264,
-0.18812295794487,
0.02510492503643036
],
[
0.0037578216288238764,
0.1721467673778534,
-0.026722369715571404
]
],
[
[
-0.03324344754219055,
0.07271242886781693,
0.08054065704345703
],
[
-0.001760548329912126,
0.10002465546131134,
-0.003287555882707238
],
[
-0.1826939582824707,
-0.029880203306674957,
-0.02389749325811863
]
]
],
[
[
[
0.09053163975477219,
-0.0015695232432335615,
0.051541488617658615
],
[
-0.11456509679555893,
-0.22121946513652802,
0.07426582276821136
],
[
-0.0945052057504654,
0.2072766125202179,
0.028730768710374832
]
],
[
[
-0.057679906487464905,
-0.1999513953924179,
-0.030909977853298187
],
[
0.07357225567102432,
0.06001875549554825,
0.013626388274133205
],
[
0.038900695741176605,
-0.0731198713183403,
0.12798048555850983
]
],
[
[
0.052857011556625366,
0.12907947599887848,
0.01792379654943943
],
[
0.007250810973346233,
0.19099320471286774,
-0.16252386569976807
],
[
0.0421370305120945,
-0.029529104009270668,
-0.17970411479473114
]
]
],
[
[
[
-0.0126069076359272,
-0.1347942054271698,
0.07682729512453079
],
[
0.1090090200304985,
0.2744443118572235,
0.04729664698243141
],
[
-0.005382550414651632,
-0.20052136480808258,
-0.12376489490270615
]
],
[
[
0.12504756450653076,
0.017858026549220085,
0.02548578381538391
],
[
-0.021365392953157425,
-0.04532061144709587,
-0.14843283593654633
],
[
-0.07537859678268433,
-0.09771382063627243,
0.18856367468833923
]
],
[
[
0.02366289682686329,
-0.004964239429682493,
-0.0950341522693634
],
[
-0.16353587806224823,
-0.09896531701087952,
0.11082813143730164
],
[
0.06349567323923111,
0.2416478842496872,
-0.05296769738197327
]
]
],
[
[
[
-0.019678527489304543,
0.24322541058063507,
-0.08460865169763565
],
[
-0.20840518176555634,
0.07961610704660416,
-0.1413951963186264
],
[
-0.0029420393984764814,
0.023431725800037384,
0.004836469888687134
]
],
[
[
-0.007685413118451834,
-0.13205453753471375,
0.18113793432712555
],
[
0.21961358189582825,
-0.2112789899110794,
0.06917684525251389
],
[
0.0720435231924057,
-0.1611960083246231,
0.06844320148229599
]
],
[
[
-0.04372641444206238,
-0.1513715535402298,
-0.07579827308654785
],
[
0.0541929192841053,
0.15455244481563568,
-0.05964527651667595
],
[
-0.0759507566690445,
0.1989632248878479,
-0.048271141946315765
]
]
],
[
[
[
0.026972295716404915,
-0.05806807056069374,
-0.04375547915697098
],
[
0.07576742023229599,
0.33321061730384827,
-0.10931213945150375
],
[
-0.12590807676315308,
-0.11480461061000824,
-0.049196042120456696
]
],
[
[
0.0055932337418198586,
0.052665285766124725,
0.14903710782527924
],
[
0.03482896834611893,
-0.141495481133461,
-0.09800839424133301
],
[
0.0015895271208137274,
0.005939044989645481,
0.11596617102622986
]
],
[
[
-0.11559532582759857,
0.05214491859078407,
-0.10616578906774521
],
[
-0.024807816371321678,
-0.2609504461288452,
0.20048655569553375
],
[
0.1173866018652916,
0.13140977919101715,
-0.09238076210021973
]
]
],
[
[
[
0.013985524885356426,
-0.02833932265639305,
-0.005915283225476742
],
[
0.07358071208000183,
0.18346567451953888,
-0.16389751434326172
],
[
-0.018148912116885185,
-0.15991535782814026,
0.058955706655979156
]
],
[
[
-0.01933303289115429,
0.12922871112823486,
0.03557858616113663
],
[
-0.21846725046634674,
0.01629072241485119,
0.1481003612279892
],
[
-0.05364890769124031,
0.07247249782085419,
-0.05373706296086311
]
],
[
[
0.020091697573661804,
-0.14971409738063812,
-0.0822267085313797
],
[
0.032318513840436935,
0.00734098581597209,
0.056956697255373
],
[
0.10474130511283875,
0.05220421776175499,
-0.0424031987786293
]
]
],
[
[
[
-0.10976831614971161,
0.03140284866094589,
0.04024020582437515
],
[
-0.09357105195522308,
-0.06822453439235687,
0.06802995502948761
],
[
-0.1377696990966797,
0.19836866855621338,
0.08139175176620483
]
],
[
[
0.11433280259370804,
-0.09048569202423096,
-0.14508570730686188
],
[
0.01782386563718319,
0.2200322449207306,
-0.0656433179974556
],
[
0.10189445316791534,
-0.0750504583120346,
0.032854113727808
]
],
[
[
0.08306065946817398,
0.016671737655997276,
0.05498965084552765
],
[
0.14087341725826263,
-0.16571946442127228,
-0.05544470623135567
],
[
-0.03350701928138733,
-0.05731877312064171,
-0.105449378490448
]
]
],
[
[
[
-0.021323466673493385,
0.08772723376750946,
0.01624227873980999
],
[
0.014516045339405537,
0.12069559097290039,
-0.15146179497241974
],
[
0.05109531804919243,
0.03651564568281174,
-0.06101243197917938
]
],
[
[
0.16251036524772644,
-0.09544476866722107,
-0.11041805148124695
],
[
0.0683765709400177,
-0.07711783051490784,
-0.10246343910694122
],
[
0.05612066760659218,
-0.05682443454861641,
-0.0781235545873642
]
],
[
[
-0.13877572119235992,
-0.02334231697022915,
0.14016933739185333
],
[
-0.07045593112707138,
0.026264606043696404,
0.1837163120508194
],
[
-0.1572253704071045,
0.05589430034160614,
0.12185677886009216
]
]
],
[
[
[
0.04121726378798485,
0.08406826108694077,
0.12589141726493835
],
[
0.010555465705692768,
-0.26225411891937256,
-0.1468135267496109
],
[
-0.06631482392549515,
-0.0024333512410521507,
0.15904368460178375
]
],
[
[
-0.10997592657804489,
-0.0012703952379524708,
0.03235454112291336
],
[
-0.009427701123058796,
0.2220906913280487,
0.044051915407180786
],
[
0.03093511238694191,
0.0946647897362709,
-0.11793370544910431
]
],
[
[
-0.015634210780262947,
-0.0574895478785038,
-0.11146192252635956
],
[
0.13694864511489868,
-0.06783038377761841,
0.024147428572177887
],
[
0.018152717500925064,
0.04087081924080849,
-0.07000088691711426
]
]
],
[
[
[
-0.020353369414806366,
0.11068989336490631,
0.11093278974294662
],
[
-0.20727047324180603,
-0.09204813838005066,
0.011581351980566978
],
[
0.05668230727314949,
-0.04969320073723793,
0.004081076011061668
]
],
[
[
0.042636364698410034,
0.12510579824447632,
-0.12286718934774399
],
[
0.07821860909461975,
-0.07337507605552673,
-0.004086645785719156
],
[
0.048973411321640015,
-0.013623791746795177,
0.0873594731092453
]
],
[
[
-0.04328983277082443,
-0.19884876906871796,
0.022177662700414658
],
[
0.11186739802360535,
0.2017820179462433,
0.0010198334930464625
],
[
-0.008217470720410347,
-0.05332997813820839,
-0.09424003213644028
]
]
],
[
[
[
-0.052292678505182266,
0.12604951858520508,
0.03040224500000477
],
[
0.050607360899448395,
-0.07934176176786423,
0.06354236602783203
],
[
-0.021667074412107468,
0.06359542906284332,
-0.0381302572786808
]
],
[
[
0.028468184173107147,
-0.21213467419147491,
0.05665039271116257
],
[
-0.021655704826116562,
-0.04017006978392601,
0.07897234708070755
],
[
0.07219234853982925,
0.04611499235033989,
-0.17482030391693115
]
],
[
[
-0.03898924961686134,
0.14126889407634735,
-0.08213723450899124
],
[
-0.06120927259325981,
-0.019566362723708153,
-0.05752413719892502
],
[
0.0550718829035759,
-0.08255250006914139,
0.1569446176290512
]
]
],
[
[
[
0.1420692801475525,
0.09958036243915558,
-0.07248993963003159
],
[
-0.002911012852564454,
-0.03428613394498825,
-0.03407236933708191
],
[
-0.062051184475421906,
-0.021694764494895935,
-0.004420523997396231
]
],
[
[
-0.09040480852127075,
0.12032704055309296,
-0.03468456491827965
],
[
0.051093582063913345,
0.0143465930595994,
-0.0641506090760231
],
[
-0.0661168023943901,
-0.04484148323535919,
0.11672034859657288
]
],
[
[
-0.12388966977596283,
-0.09213581681251526,
0.16361896693706512
],
[
-0.06432607024908066,
-0.03730210289359093,
0.03288072720170021
],
[
0.15944251418113708,
0.06766266375780106,
-0.1391422003507614
]
]
],
[
[
[
-0.09771674871444702,
-0.08718744665384293,
-0.03644430637359619
],
[
-0.15150539577007294,
0.18099336326122284,
0.1599011868238449
],
[
0.1028868779540062,
0.07659085839986801,
0.02102823555469513
]
],
[
[
0.08201701194047928,
0.06654424965381622,
-0.02094663307070732
],
[
-0.01919102855026722,
-0.10841826349496841,
-0.17426978051662445
],
[
-0.000994922942481935,
-0.11853766441345215,
0.017570778727531433
]
],
[
[
-0.03535878285765648,
-0.005816625896841288,
0.048822417855262756
],
[
0.17579534649848938,
-0.17151929438114166,
0.11619482934474945
],
[
-0.057167038321495056,
0.18124528229236603,
-0.15272429585456848
]
]
],
[
[
[
0.12584178149700165,
0.006667076610028744,
0.047337643802165985
],
[
-0.12543506920337677,
-0.09952983260154724,
0.1023353561758995
],
[
-0.0778195932507515,
-0.0200636088848114,
-0.014612113125622272
]
],
[
[
-0.1327746957540512,
-0.11796781420707703,
-0.027646364644169807
],
[
0.08334188163280487,
0.1866471767425537,
0.025840841233730316
],
[
0.07727386802434921,
0.10574518144130707,
-0.10216227173805237
]
],
[
[
0.030747877433896065,
0.05556108430027962,
-0.01801956258714199
],
[
-0.05723363906145096,
0.020334184169769287,
-0.08115626871585846
],
[
0.012920155189931393,
-0.10742443054914474,
0.09567135572433472
]
]
],
[
[
[
0.010824684984982014,
0.13681097328662872,
0.10906791687011719
],
[
-0.036537084728479385,
-0.09854236990213394,
0.05074614658951759
],
[
-0.07388973981142044,
-0.035942524671554565,
-0.009264911524951458
]
],
[
[
-0.033186912536621094,
-0.17651371657848358,
-0.047728199511766434
],
[
-0.04023299738764763,
-0.04091188311576843,
-0.02141682803630829
],
[
0.08632207661867142,
0.039232105016708374,
0.16874927282333374
]
],
[
[
0.008615179918706417,
0.06878239661455154,
-0.09504612535238266
],
[
0.11050166189670563,
0.03754603490233421,
0.07924780994653702
],
[
-0.050041258335113525,
-0.07892802357673645,
-0.1071692407131195
]
]
],
[
[
[
0.06446224451065063,
0.1417190283536911,
-0.14623461663722992
],
[
0.010340982116758823,
0.03538002818822861,
0.12722641229629517
],
[
0.07862962782382965,
-0.1769431233406067,
-0.11385604739189148
]
],
[
[
-0.05964672192931175,
-0.16265617311000824,
0.09758976101875305
],
[
-0.1651005744934082,
-0.014114582911133766,
-0.00619359640404582
],
[
0.043089333921670914,
0.07187390327453613,
0.14528730511665344
]
],
[
[
0.03534657508134842,
0.15384399890899658,
-0.13357137143611908
],
[
0.1981455534696579,
-0.12083931267261505,
-0.003420379711315036
],
[
-0.16279283165931702,
0.12131045013666153,
0.019671445712447166
]
]
],
[
[
[
-0.04156006872653961,
0.021149426698684692,
-0.08420675247907639
],
[
-0.07576652616262436,
0.24127593636512756,
0.0018757492071017623
],
[
-0.11560975760221481,
0.06943075358867645,
-0.10381437093019485
]
],
[
[
-0.05078928917646408,
-0.05345731973648071,
0.03585456311702728
],
[
0.02615555003285408,
0.12248921394348145,
-0.06497218459844589
],
[
0.004479537717998028,
-0.2399408370256424,
0.06892768293619156
]
],
[
[
0.04837449640035629,
0.10914886742830276,
-0.05589187145233154
],
[
-0.12114648520946503,
-0.011782425455749035,
0.14511136710643768
],
[
0.11341702193021774,
-0.0665462538599968,
0.1367054283618927
]
]
],
[
[
[
-0.0729573667049408,
0.10495802015066147,
-0.06327972561120987
],
[
-0.05258012190461159,
0.11610555648803711,
-0.18570749461650848
],
[
-0.03392810747027397,
0.08685775101184845,
0.060643523931503296
]
],
[
[
0.10823433846235275,
0.16294389963150024,
0.07328100502490997
],
[
0.10995043814182281,
-0.2494933307170868,
0.11231578141450882
],
[
-0.04094942659139633,
-0.14706936478614807,
-0.10383205115795135
]
],
[
[
-0.04456840828061104,
-0.21617817878723145,
-0.03060087002813816
],
[
-0.08891142904758453,
0.04677136614918709,
0.07194980978965759
],
[
0.09096789360046387,
0.05217405781149864,
0.0973513200879097
]
]
],
[
[
[
0.07020482420921326,
-0.09363952279090881,
0.007221986539661884
],
[
0.06774014979600906,
-0.17471341788768768,
0.016214346513152122
],
[
-0.015946000814437866,
0.0672110915184021,
-0.03710056468844414
]
],
[
[
-0.0837736502289772,
0.11441141366958618,
-0.10356630384922028
],
[
0.2303098887205124,
-0.009032041765749454,
0.02679508738219738
],
[
-0.0859665498137474,
0.07286610454320908,
-0.05368049815297127
]
],
[
[
-0.046916913241147995,
0.02531260810792446,
0.10015357285737991
],
[
-0.23181357979774475,
0.10553538054227829,
-0.0017375074094161391
],
[
0.053611379116773605,
-0.07733869552612305,
0.03173678740859032
]
]
],
[
[
[
0.07811181247234344,
-0.06679920852184296,
0.02208670973777771
],
[
-0.0007090013823471963,
-0.19988764822483063,
0.16163420677185059
],
[
-0.06257972866296768,
0.05678187683224678,
0.0054020038805902
]
],
[
[
-0.13279855251312256,
0.20494365692138672,
-0.07170385122299194
],
[
0.04159342870116234,
-0.010515916161239147,
0.0013339968863874674
],
[
-0.07673007994890213,
-0.01643952541053295,
0.1119622141122818
]
],
[
[
0.09528463333845139,
-0.16182324290275574,
0.008156649768352509
],
[
-0.09518828988075256,
0.2345370501279831,
-0.09437833726406097
],
[
0.07965067028999329,
0.03630038723349571,
-0.1351463943719864
]
]
],
[
[
[
-0.0508234016597271,
0.07777087390422821,
-0.11647357046604156
],
[
-0.01841353252530098,
0.14382010698318481,
-0.06906163692474365
],
[
0.10493822395801544,
-0.026332823559641838,
0.03529750555753708
]
],
[
[
0.08177923411130905,
0.02011691778898239,
0.02963334321975708
],
[
-0.13368627429008484,
-0.21501098573207855,
0.15902696549892426
],
[
-0.036767564713954926,
-0.007304494734853506,
-0.02783477120101452
]
],
[
[
0.02917362190783024,
-0.04380571097135544,
-0.02050008624792099
],
[
0.1301858276128769,
0.06286188215017319,
-0.05548836290836334
],
[
-0.03548073768615723,
-0.036293983459472656,
0.04242173954844475
]
]
],
[
[
[
0.18419581651687622,
-0.11380539834499359,
-0.07467100769281387
],
[
-0.17965921759605408,
0.0661754235625267,
-0.1241367757320404
],
[
0.010832964442670345,
0.1534285843372345,
-0.02293352596461773
]
],
[
[
-0.167080357670784,
-0.03214765340089798,
0.049245093017816544
],
[
0.004798594396561384,
0.13671167194843292,
0.1165664792060852
],
[
-0.04371831193566322,
-0.06464540958404541,
0.11933858692646027
]
],
[
[
-0.035965222865343094,
0.16591708362102509,
-0.004140334669500589
],
[
0.1178748682141304,
-0.18209537863731384,
0.11259939521551132
],
[
0.11255127936601639,
-0.18509255349636078,
-0.10513792186975479
]
]
],
[
[
[
0.07786911725997925,
-0.12551218271255493,
-0.012795280665159225
],
[
0.1854727864265442,
-0.19724780321121216,
-0.09388938546180725
],
[
0.08982932567596436,
-0.04369715601205826,
-0.08239646255970001
]
],
[
[
-0.15658968687057495,
0.0392695814371109,
0.030710943043231964
],
[
-0.06318983435630798,
0.06971188634634018,
-0.04339022561907768
],
[
-0.07322628796100616,
0.11211058497428894,
0.12396202236413956
]
],
[
[
0.053340569138526917,
0.18533965945243835,
0.017665697261691093
],
[
-0.03759313002228737,
0.15846775472164154,
0.005678160116076469
],
[
-0.1386401653289795,
-0.028470708057284355,
0.004037644248455763
]
]
],
[
[
[
0.045680735260248184,
0.0618944987654686,
0.09943151473999023
],
[
-0.15827931463718414,
0.07536648213863373,
0.07675991207361221
],
[
-0.050225868821144104,
0.021776599809527397,
-0.14284607768058777
]
],
[
[
0.035783760249614716,
-0.09640772640705109,
-0.056094761937856674
],
[
0.09251351654529572,
0.16926726698875427,
-0.12887585163116455
],
[
0.07885808497667313,
-0.1572403758764267,
0.06211596354842186
]
],
[
[
-0.0611560083925724,
0.06201988831162453,
-0.027509914711117744
],
[
-0.08340658247470856,
-0.08057142049074173,
0.018560031428933144
],
[
0.0470963716506958,
-0.005021609365940094,
0.14295093715190887
]
]
],
[
[
[
0.027434982359409332,
0.1530439555644989,
-0.08319516479969025
],
[
0.12143998593091965,
-0.06656080484390259,
0.06141018122434616
],
[
-0.14647480845451355,
0.18083396553993225,
-0.014678021892905235
]
],
[
[
0.05132192373275757,
-0.13670948147773743,
0.1166788712143898
],
[
-0.19809986650943756,
-0.02249329350888729,
-0.03740633651614189
],
[
0.12007656693458557,
-0.07055144011974335,
-0.11996957659721375
]
],
[
[
-0.1022723838686943,
-0.024762196466326714,
0.022855184972286224
],
[
0.10161921381950378,
0.026521623134613037,
0.04761504754424095
],
[
0.0740700289607048,
-0.10234639048576355,
0.08178343623876572
]
]
],
[
[
[
-0.049747440963983536,
-0.06135006248950958,
0.14337058365345
],
[
0.11240291595458984,
0.024574799463152885,
-0.16928894817829132
],
[
0.02782948687672615,
-0.04464326426386833,
0.05176915228366852
]
],
[
[
0.09907736629247665,
-0.11536438018083572,
0.016626346856355667
],
[
0.00916967447847128,
-0.12012755125761032,
0.059645045548677444
],
[
-0.09199044853448868,
0.11326654255390167,
0.013043559156358242
]
],
[
[
-0.05667777359485626,
-0.009941337630152702,
-0.06038788706064224
],
[
-0.0188947394490242,
0.11441891640424728,
0.036266591399908066
],
[
-0.07094285637140274,
0.11677327752113342,
-0.12133776396512985
]
]
],
[
[
[
-0.011497991159558296,
-0.034358929842710495,
0.018934709951281548
],
[
0.0594920814037323,
0.15346431732177734,
-0.1908355951309204
],
[
0.004218266811221838,
0.05367588624358177,
-0.05977117270231247
]
],
[
[
-0.08351083099842072,
0.020062869414687157,
-0.12611126899719238
],
[
0.02924603782594204,
-0.020534522831439972,
0.16927722096443176
],
[
-0.003185536013916135,
-0.08880776166915894,
0.09369685500860214
]
],
[
[
-0.052097249776124954,
0.19562427699565887,
0.0753694549202919
],
[
0.12147562950849533,
-0.3751651346683502,
0.03129340708255768
],
[
-0.009818492457270622,
0.08591683208942413,
-0.029723864048719406
]
]
],
[
[
[
-0.13400708138942719,
-0.1874530166387558,
-0.05513004958629608
],
[
-0.07147189974784851,
0.2383548617362976,
0.08169708400964737
],
[
0.06271311640739441,
0.08809877932071686,
0.09519121050834656
]
],
[
[
0.13223887979984283,
0.029950754716992378,
0.0761110708117485
],
[
0.061120688915252686,
-0.17240281403064728,
-0.13247497379779816
],
[
-0.03977036103606224,
0.06681975722312927,
-0.15777593851089478
]
],
[
[
0.000751142913941294,
0.13687963783740997,
-0.05691656470298767
],
[
-0.004258827771991491,
0.026585591956973076,
-0.03197389468550682
],
[
-0.026692446321249008,
-0.13153626024723053,
0.1205296590924263
]
]
],
[
[
[
0.03519798442721367,
0.08972250670194626,
0.07547246664762497
],
[
-0.03168817609548569,
0.10487168282270432,
-0.15234924852848053
],
[
-0.0007212634081952274,
-0.20913967490196228,
0.09749551862478256
]
],
[
[
0.12376759946346283,
-0.25948914885520935,
-0.027240263298153877
],
[
-0.006349434144794941,
0.20297415554523468,
0.09535089135169983
],
[
0.055188219994306564,
0.032442379742860794,
-0.1501748114824295
]
],
[
[
-0.08802767097949982,
0.13093425333499908,
0.01724710315465927
],
[
-0.08078999072313309,
-0.1942010074853897,
-0.05884123221039772
],
[
-0.00027168047381564975,
0.16182386875152588,
0.0662342756986618
]
]
],
[
[
[
0.09304578602313995,
0.1467081606388092,
0.06755082309246063
],
[
-0.06415756791830063,
-0.09748966246843338,
0.0262951347976923
],
[
0.10516652464866638,
-0.17617017030715942,
-0.06261979043483734
]
],
[
[
0.006482638418674469,
0.12884464859962463,
-0.02892986685037613
],
[
-0.16255702078342438,
-0.11043190956115723,
0.2729169428348541
],
[
-0.14326238632202148,
0.004969366826117039,
-0.03513843193650246
]
],
[
[
0.055949099361896515,
-0.01646454446017742,
-0.04063987731933594
],
[
-0.14890681207180023,
-0.07597451657056808,
0.13205759227275848
],
[
0.012624600902199745,
-0.07761447131633759,
0.0009260356309823692
]
]
],
[
[
[
-0.1929725855588913,
0.008320393972098827,
0.043768223375082016
],
[
0.09995599836111069,
0.23095650970935822,
0.06916756927967072
],
[
-0.05646924301981926,
-0.06482627242803574,
0.06492605060338974
]
],
[
[
0.04641801863908768,
0.11387940496206284,
-0.10043560713529587
],
[
-0.001832484034821391,
-0.2542784810066223,
-0.17940905690193176
],
[
0.10773004591464996,
-0.09087171405553818,
0.12026149034500122
]
],
[
[
0.06825508922338486,
0.12655311822891235,
-0.0700083002448082
],
[
-0.05449729412794113,
-0.1696433424949646,
0.19926050305366516
],
[
-0.05137275531888008,
-0.0317930169403553,
-0.04349656403064728
]
]
],
[
[
[
0.027970800176262856,
-0.11474352329969406,
0.14218682050704956
],
[
-0.1632477045059204,
0.07403647154569626,
0.015322810970246792
],
[
0.04796433076262474,
-0.04108923673629761,
-0.09626517444849014
]
],
[
[
-0.004615375772118568,
0.07453321665525436,
-0.032742924988269806
],
[
-0.08208324760198593,
-0.022595297545194626,
-0.007932218722999096
],
[
0.04590504989027977,
0.09507712721824646,
0.10257165879011154
]
],
[
[
0.057913195341825485,
-0.013153239153325558,
-0.1045951321721077
],
[
0.21476706862449646,
0.054986871778964996,
-0.06727570295333862
],
[
-0.12274723500013351,
-0.03437543660402298,
-0.055714912712574005
]
]
],
[
[
[
-0.15401549637317657,
-0.11936492472887039,
-0.0012701526284217834
],
[
0.09792976826429367,
-0.25803059339523315,
0.23541758954524994
],
[
-0.1168394610285759,
0.007286231033504009,
0.0022196792997419834
]
],
[
[
0.02289888635277748,
0.05158017575740814,
-0.0009128223755396903
],
[
0.14256392419338226,
0.22904255986213684,
-0.17689149081707
],
[
0.09515374153852463,
-0.13849863409996033,
-0.059809841215610504
]
],
[
[
0.07803668826818466,
0.11952362209558487,
0.04417654499411583
],
[
-0.2150818407535553,
0.14157745242118835,
-0.10353825986385345
],
[
0.05023544654250145,
-0.10627679526805878,
0.08670923113822937
]
]
],
[
[
[
-0.06873321533203125,
-0.146480992436409,
0.13580390810966492
],
[
-0.008883162401616573,
0.28340253233909607,
-0.02985752932727337
],
[
-0.1541748195886612,
0.09462469071149826,
-0.0859731137752533
]
],
[
[
0.04775037616491318,
-0.0686117559671402,
0.004168860148638487
],
[
0.15965603291988373,
-0.1344485729932785,
0.15761862695217133
],
[
0.11568322777748108,
-0.21234522759914398,
-0.05074046552181244
]
],
[
[
-0.06896381825208664,
0.030341506004333496,
-0.0008022365509532392
],
[
-0.16136619448661804,
0.04850390553474426,
-0.20923638343811035
],
[
0.10534942895174026,
0.19496414065361023,
0.045886773616075516
]
]
],
[
[
[
-0.054895564913749695,
0.13105592131614685,
-0.011874805204570293
],
[
0.005963866598904133,
0.01005418598651886,
0.06208997964859009
],
[
0.13425613939762115,
-0.11652917414903641,
-0.10746882110834122
]
],
[
[
0.048707738518714905,
-0.05955146253108978,
0.14661923050880432
],
[
0.025768229737877846,
0.04300370812416077,
-0.16481520235538483
],
[
-0.1460467427968979,
0.12099582701921463,
0.04355217143893242
]
],
[
[
0.010612091980874538,
-0.06415144354104996,
-0.0915747880935669
],
[
0.178321972489357,
-0.040120627731084824,
-0.10852055996656418
],
[
-0.0028044998180121183,
0.013287164270877838,
-0.011742731556296349
]
]
],
[
[
[
-0.040542494505643845,
0.15488538146018982,
0.019161755219101906
],
[
-0.10762092471122742,
0.019612135365605354,
0.16930216550827026
],
[
-0.14173360168933868,
-0.05626939237117767,
-0.08812771737575531
]
],
[
[
0.05125902220606804,
0.03540957346558571,
-0.13513918220996857
],
[
0.034361276775598526,
-0.22427889704704285,
-0.06966909766197205
],
[
0.08487196266651154,
-0.08477495610713959,
0.0093795545399189
]
],
[
[
-0.0006080456078052521,
-0.04725411534309387,
0.12832199037075043
],
[
0.11071980744600296,
-0.04782882705330849,
-0.09293999522924423
],
[
0.08265455812215805,
0.05984214320778847,
0.062309954315423965
]
]
],
[
[
[
0.051730941981077194,
-0.24030187726020813,
0.08927879482507706
],
[
0.044929735362529755,
0.11488809436559677,
-0.00022618599177803844
],
[
-0.022065231576561928,
-0.034242041409015656,
0.002523883944377303
]
],
[
[
-0.015220492146909237,
0.16705653071403503,
-0.060939885675907135
],
[
-0.07006806135177612,
-0.0065671480260789394,
8.928410579756019e-07
],
[
-0.08820897340774536,
0.056244075298309326,
0.07178883999586105
]
],
[
[
0.056852586567401886,
-0.0005655157729052007,
-0.04055554047226906
],
[
0.05057857930660248,
-0.12901072204113007,
-0.011450721882283688
],
[
0.033538877964019775,
0.008398564532399178,
-0.020918255671858788
]
]
],
[
[
[
-0.04492460563778877,
-0.11489543318748474,
-0.013689259067177773
],
[
0.02358677051961422,
0.0178961381316185,
0.08315769582986832
],
[
0.12620516121387482,
-0.13542187213897705,
-0.006653343793004751
]
],
[
[
0.0001796823926270008,
0.047212857753038406,
-0.0881243646144867
],
[
0.10172103345394135,
-0.0037021220196038485,
-0.18304449319839478
],
[
0.04406743496656418,
0.05967378616333008,
0.08264990895986557
]
],
[
[
0.1020260602235794,
0.026781784370541573,
0.04280947148799896
],
[
-0.20347647368907928,
0.03648450970649719,
0.0726928561925888
],
[
-0.13283120095729828,
0.1063123568892479,
-0.059058163315057755
]
]
],
[
[
[
-0.10264287143945694,
-0.03873823583126068,
-0.035375144332647324
],
[
-0.11141552776098251,
0.03085918165743351,
-0.09431057423353195
],
[
0.10369858145713806,
0.055688370019197464,
0.1239427775144577
]
],
[
[
0.004055425059050322,
-0.11525819450616837,
0.042544689029455185
],
[
-0.021056747063994408,
0.08926213532686234,
-0.06778982281684875
],
[
0.06343184411525726,
-0.028300350531935692,
-0.0664171427488327
]
],
[
[
0.08171869814395905,
0.05796363949775696,
0.07556364685297012
],
[
0.10060230642557144,
0.04005822911858559,
-0.010186003521084785
],
[
-0.13958698511123657,
-0.05344795808196068,
-0.06993959099054337
]
]
],
[
[
[
-0.015878776088356972,
0.11921319365501404,
0.07223979383707047
],
[
0.0907454863190651,
-0.2531907260417938,
0.15230529010295868
],
[
-0.008384454064071178,
-0.17032743990421295,
0.06193864718079567
]
],
[
[
0.06934360414743423,
-0.16717831790447235,
-0.10376594215631485
],
[
-0.053771886974573135,
0.2856038510799408,
-0.19118782877922058
],
[
0.008772389031946659,
0.06463981419801712,
0.031043151393532753
]
],
[
[
-0.05040125176310539,
-0.022958219051361084,
0.05321182310581207
],
[
-0.13753226399421692,
0.035956934094429016,
0.08456127345561981
],
[
0.12218950688838959,
0.03427748754620552,
-0.1260460913181305
]
]
],
[
[
[
-0.030585289001464844,
0.06740783154964447,
-0.009928158484399319
],
[
-0.040055084973573685,
-0.10972756892442703,
0.10312957316637039
],
[
-0.054701101034879684,
0.19148463010787964,
-0.07599260658025742
]
],
[
[
0.00819903239607811,
0.06474975496530533,
-0.05533348396420479
],
[
0.10371324419975281,
0.14155662059783936,
-0.15673445165157318
],
[
-0.002082900842651725,
-0.1536874622106552,
-0.04953864589333534
]
],
[
[
0.05275843292474747,
-0.12399277091026306,
0.016654236242175102
],
[
-0.042462777346372604,
-0.02886994555592537,
0.08299198746681213
],
[
-0.008446943946182728,
-0.05291619896888733,
0.1577059030532837
]
]
],
[
[
[
-0.0068050166592001915,
-0.12862956523895264,
-0.02731579914689064
],
[
0.12869416177272797,
-0.02750539965927601,
0.04608073830604553
],
[
0.10118002444505692,
-0.09050777554512024,
0.06614857167005539
]
],
[
[
-0.028562666848301888,
0.13236074149608612,
0.1488480120897293
],
[
-0.0745212733745575,
-0.1406984031200409,
-0.0013112551532685757
],
[
-0.13140764832496643,
-0.124409519135952,
0.07493991404771805
]
],
[
[
-0.06488297879695892,
0.0950842872262001,
-0.054475653916597366
],
[
0.05875913053750992,
0.13670364022254944,
-0.16555075347423553
],
[
0.011723089031875134,
0.13527658581733704,
-0.10157067328691483
]
]
],
[
[
[
0.004009779542684555,
0.1897813230752945,
-0.12097813934087753
],
[
0.0728936493396759,
0.14860466122627258,
-0.10583654046058655
],
[
-0.04122045263648033,
-0.09343992918729782,
-0.12238959223031998
]
],
[
[
-0.10643320530653,
-0.006787627004086971,
-0.04245750978589058
],
[
0.058794815093278885,
0.06398484110832214,
0.07510973513126373
],
[
0.12435130774974823,
0.09187614917755127,
-0.05399598926305771
]
],
[
[
0.005430751014500856,
-0.12344297021627426,
0.1674356311559677
],
[
-0.0026617911644279957,
-0.27156978845596313,
0.07188595831394196
],
[
-0.14387917518615723,
0.04921329766511917,
0.130551278591156
]
]
],
[
[
[
-0.02339797653257847,
-0.16027520596981049,
0.14821600914001465
],
[
0.13194459676742554,
-0.12997739017009735,
-0.03387570008635521
],
[
0.02754230611026287,
0.12116295844316483,
-0.017541678622364998
]
],
[
[
-0.05090877041220665,
0.25465282797813416,
-0.021756645292043686
],
[
-0.05070458725094795,
-0.21615885198116302,
-0.1880408674478531
],
[
-0.013029515743255615,
-0.05330737680196762,
0.1028759777545929
]
],
[
[
-0.05912237614393234,
0.09372850507497787,
-0.09453997761011124
],
[
0.13524331152439117,
0.1767234355211258,
0.10288306325674057
],
[
-0.07933971285820007,
0.05764880031347275,
-0.12337318062782288
]
]
],
[
[
[
0.11175185441970825,
-0.06753029674291611,
-0.04699502885341644
],
[
0.16921663284301758,
0.3432217240333557,
-0.19616927206516266
],
[
-0.03872843086719513,
-0.1884431093931198,
-0.023234715685248375
]
],
[
[
-0.07984299957752228,
-0.055875908583402634,
0.08237076550722122
],
[
-0.08245562762022018,
-0.09805012494325638,
-0.05774274840950966
],
[
-0.006715729832649231,
0.05182020366191864,
0.013497759588062763
]
],
[
[
-0.05753038078546524,
0.1974773406982422,
-0.024971038103103638
],
[
-0.1526118963956833,
-0.14773119986057281,
0.19234128296375275
],
[
0.11159779876470566,
0.005013476125895977,
0.004298259038478136
]
]
],
[
[
[
-0.0055923666805028915,
-0.22568951547145844,
0.09936224669218063
],
[
-0.10336535423994064,
-0.01023115310817957,
-0.04914633184671402
],
[
0.12491685152053833,
0.12151461094617844,
0.04796566814184189
]
],
[
[
0.01666756346821785,
0.21525047719478607,
-0.06363479048013687
],
[
-0.11829627305269241,
-0.09448500722646713,
0.09715819358825684
],
[
-0.02032563090324402,
-0.14618168771266937,
-0.01653820276260376
]
],
[
[
-0.05194518715143204,
0.08863916248083115,
-0.025891851633787155
],
[
0.1490340232849121,
0.06850367039442062,
0.005447687581181526
],
[
-0.002179971896111965,
0.07928428053855896,
-0.1181492954492569
]
]
],
[
[
[
-0.04007109999656677,
0.16280554234981537,
0.11564423143863678
],
[
-0.15577758848667145,
-0.07758826017379761,
-0.0470416359603405
],
[
-0.02964646741747856,
0.11358233541250229,
-0.007434834260493517
]
],
[
[
0.06085136905312538,
-0.17761939764022827,
-0.11996260285377502
],
[
0.27178943157196045,
0.01715206541121006,
0.006202944554388523
],
[
-0.022058812901377678,
0.05892936512827873,
-0.09634140133857727
]
],
[
[
-0.06552404165267944,
0.13678036630153656,
-0.09211868792772293
],
[
0.014466957189142704,
-0.22463877499103546,
0.14993034303188324
],
[
-0.03932329639792442,
0.037423472851514816,
0.060264404863119125
]
]
],
[
[
[
-0.005000323988497257,
0.018936803564429283,
0.01317543163895607
],
[
0.045313071459531784,
-0.14520777761936188,
0.03875908628106117
],
[
-0.047294966876506805,
0.12239272892475128,
-0.0220843143761158
]
],
[
[
0.002441725693643093,
-0.22664114832878113,
0.014470904134213924
],
[
-0.18050765991210938,
0.1587478369474411,
0.16840745508670807
],
[
0.06333007663488388,
-0.15773454308509827,
0.13707751035690308
]
],
[
[
-0.002640239894390106,
0.14886128902435303,
0.06494476646184921
],
[
0.11118170619010925,
-0.04629839211702347,
-0.11751013994216919
],
[
0.016983933746814728,
0.06136428192257881,
-0.1879105567932129
]
]
],
[
[
[
-0.038179583847522736,
0.1290562003850937,
0.11420648545026779
],
[
-0.1262202113866806,
-0.13936690986156464,
0.006880685221403837
],
[
-0.01775520294904709,
0.026554550975561142,
0.11548488587141037
]
],
[
[
-0.14677582681179047,
-0.09908997267484665,
-0.008131313137710094
],
[
0.1807297170162201,
0.2650504410266876,
-0.11941447854042053
],
[
-0.07846086472272873,
-0.07399896532297134,
-0.0492301881313324
]
],
[
[
0.17779426276683807,
0.007576465141028166,
-0.08887879550457001
],
[
-0.01602267101407051,
-0.15868523716926575,
0.08196566998958588
],
[
0.09382952749729156,
0.04254302382469177,
-0.07244175672531128
]
]
],
[
[
[
-0.13749869167804718,
0.0008916961378417909,
0.15469881892204285
],
[
-0.03508380055427551,
0.07981009036302567,
-0.1334356665611267
],
[
-0.1760093867778778,
0.09476327151060104,
0.09240588545799255
]
],
[
[
0.137498676776886,
-0.12232889235019684,
-0.06219591572880745
],
[
0.03664998710155487,
0.1367219090461731,
-0.003028151346370578
],
[
0.11863908171653748,
-0.22522085905075073,
0.06746813654899597
]
],
[
[
-0.06286603957414627,
0.08457985520362854,
-0.07171928137540817
],
[
0.10676316916942596,
-0.19004660844802856,
-0.0327327623963356
],
[
0.09093380719423294,
0.10103639215230942,
-0.06348420679569244
]
]
],
[
[
[
0.11448604613542557,
0.14691786468029022,
-0.09671632945537567
],
[
-0.15255197882652283,
0.031094271689653397,
0.08291850984096527
],
[
-0.09075255692005157,
-0.06431230902671814,
0.04809965193271637
]
],
[
[
0.17260192334651947,
-0.17396396398544312,
0.13467641174793243
],
[
0.12786400318145752,
-0.23208628594875336,
-0.05483328178524971
],
[
-0.058376457542181015,
-0.0487123541533947,
-0.006715183146297932
]
],
[
[
-0.2430335283279419,
0.10318361222743988,
-0.11009780317544937
],
[
0.08099870383739471,
0.16143600642681122,
-0.000921031809411943
],
[
0.04550200328230858,
0.062221504747867584,
0.035286709666252136
]
]
],
[
[
[
-0.0722840204834938,
0.018184399232268333,
-0.1119251474738121
],
[
-0.07945945858955383,
-0.11366596072912216,
0.1962791234254837
],
[
-0.01484730839729309,
0.016054091975092888,
0.13233792781829834
]
],
[
[
0.12124308198690414,
-0.15424637496471405,
-0.1112142950296402
],
[
0.206152081489563,
-0.1132444441318512,
-0.08384475111961365
],
[
0.031474173069000244,
0.07633820176124573,
-0.02229953743517399
]
],
[
[
-0.038351185619831085,
0.05333932861685753,
0.1416843980550766
],
[
-0.1929604411125183,
0.28427451848983765,
0.0677247941493988
],
[
0.013044479303061962,
-0.1966787427663803,
-0.0832083597779274
]
]
],
[
[
[
-0.05478142946958542,
-0.09754389524459839,
0.058652613312006
],
[
0.11385940760374069,
-0.14074373245239258,
-0.06299286335706711
],
[
-0.003538179909810424,
-0.002293741563335061,
-0.019045110791921616
]
],
[
[
-0.012700870633125305,
-0.03328067436814308,
-0.04994657635688782
],
[
0.1208525151014328,
-0.20522333681583405,
0.058322105556726456
],
[
-0.06282150745391846,
0.16172942519187927,
0.1560392826795578
]
],
[
[
0.03141936659812927,
0.16548554599285126,
-0.07121483981609344
],
[
0.04515540599822998,
0.06401928514242172,
0.053264372050762177
],
[
-0.021336479112505913,
-0.15782271325588226,
-0.11053045094013214
]
]
],
[
[
[
0.052986402064561844,
-0.19170621037483215,
-0.02109571173787117
],
[
0.13892292976379395,
0.14571845531463623,
-0.19298304617404938
],
[
-0.01359720341861248,
-0.03883887082338333,
0.07274354994297028
]
],
[
[
-0.06825567036867142,
0.11389590799808502,
0.04116501286625862
],
[
-0.053766269236803055,
-0.09108202159404755,
-0.056355636566877365
],
[
0.036283038556575775,
0.032169897109270096,
0.08361658453941345
]
],
[
[
0.04170308634638786,
0.03317001834511757,
-0.04488305002450943
],
[
0.02559834159910679,
-0.0933942124247551,
0.18250828981399536
],
[
-0.09413252770900726,
-0.033499669283628464,
-0.026053614914417267
]
]
],
[
[
[
0.008418888784945011,
0.05082683265209198,
-0.048321548849344254
],
[
0.20397305488586426,
-0.2888834774494171,
0.04496400058269501
],
[
-0.062254488468170166,
-0.07104738056659698,
0.18815025687217712
]
],
[
[
-0.014653302729129791,
0.07064463943243027,
0.10851998627185822
],
[
-0.134566068649292,
0.08179058879613876,
-0.11498001217842102
],
[
0.14063657820224762,
-0.001151757431216538,
-0.17975695431232452
]
],
[
[
-0.024649910628795624,
-0.02856091596186161,
-0.08856263756752014
],
[
-0.056854479014873505,
0.17435811460018158,
0.09685592353343964
],
[
-0.10405483841896057,
0.052796266973018646,
0.025746352970600128
]
]
],
[
[
[
-0.05595960468053818,
0.08165257424116135,
-0.05874151736497879
],
[
0.0593816414475441,
0.03539493680000305,
-0.022899579256772995
],
[
0.0665656253695488,
-0.11567693203687668,
-0.03236326575279236
]
],
[
[
0.11834258586168289,
0.12978798151016235,
0.045718755573034286
],
[
-0.06379351764917374,
-0.008281120099127293,
-0.1837453693151474
],
[
-0.08835212141275406,
-0.03673334792256355,
0.07751920819282532
]
],
[
[
-0.11302831768989563,
-0.20520378649234772,
0.09413717687129974
],
[
0.14259205758571625,
0.018924469128251076,
-0.030511850491166115
],
[
-0.04724228382110596,
0.02864925190806389,
0.12112455070018768
]
]
],
[
[
[
-0.034095849841833115,
0.13414165377616882,
-0.08036777377128601
],
[
0.02377578616142273,
0.0687597468495369,
0.03801456838846207
],
[
0.03939801827073097,
-0.2096535712480545,
-0.03804341331124306
]
],
[
[
-0.0550486296415329,
-0.0751340463757515,
-0.030244026333093643
],
[
0.10667054355144501,
-0.09135667979717255,
0.002976765390485525
],
[
0.10386548191308975,
-0.004227491095662117,
0.04128085449337959
]
],
[
[
-0.04386000707745552,
0.09141010046005249,
0.07679177075624466
],
[
-0.06288919597864151,
-0.09524954855442047,
0.0025937852915376425
],
[
-0.06877586245536804,
0.13874945044517517,
-0.015643488615751266
]
]
],
[
[
[
0.03130403161048889,
-0.18621264398097992,
-0.10734296590089798
],
[
0.16111259162425995,
-0.0846097394824028,
-0.0860324427485466
],
[
0.13398104906082153,
0.1259995400905609,
-0.021017495542764664
]
],
[
[
0.09323886036872864,
0.11570607125759125,
0.015321680344641209
],
[
0.16726356744766235,
-0.22597379982471466,
0.07226578146219254
],
[
-0.08193996548652649,
-0.018532082438468933,
-0.05819077417254448
]
],
[
[
-0.06744439154863358,
0.18590646982192993,
0.0743294507265091
],
[
-0.06841114163398743,
-0.015072964131832123,
0.20402507483959198
],
[
-0.09927944839000702,
-0.15522077679634094,
0.029226116836071014
]
]
],
[
[
[
0.11733954399824142,
-0.11317224055528641,
-0.037130337208509445
],
[
-0.048661261796951294,
-0.2391369491815567,
0.10014771670103073
],
[
0.10927765816450119,
-0.11301083117723465,
0.13772761821746826
]
],
[
[
-0.025698335841298103,
0.23690351843833923,
-0.009075062349438667
],
[
-0.06963708251714706,
0.16766370832920074,
0.0808287039399147
],
[
0.06551513820886612,
-0.14228932559490204,
-0.19226008653640747
]
],
[
[
-0.028079908341169357,
-0.18997646868228912,
-0.020478781312704086
],
[
-0.06371775269508362,
0.16706718504428864,
-0.052358802407979965
],
[
-0.1211923211812973,
0.18944935500621796,
0.067951500415802
]
]
],
[
[
[
0.0007318155257962644,
-0.021576158702373505,
-0.047307293862104416
],
[
-0.04614975303411484,
0.13277745246887207,
0.006149343680590391
],
[
-0.019852478057146072,
0.03728942200541496,
-0.1075892522931099
]
],
[
[
0.0707714706659317,
0.07035418599843979,
0.054726798087358475
],
[
-0.05332421511411667,
-0.1333567500114441,
0.08442422747612
],
[
0.06342999637126923,
-0.0734226405620575,
0.050561368465423584
]
],
[
[
-0.07317167520523071,
-0.045498400926589966,
-0.008541205897927284
],
[
0.003722151042893529,
0.03760015591979027,
-0.047495368868112564
],
[
0.013803885318338871,
0.018861472606658936,
0.061581727117300034
]
]
],
[
[
[
0.02918517030775547,
0.13920743763446808,
-0.02702878974378109
],
[
0.11857657134532928,
-0.1430889368057251,
-0.046059928834438324
],
[
-0.08236850798130035,
0.016592521220445633,
-0.01529352180659771
]
],
[
[
-0.13940276205539703,
-0.19292224943637848,
0.13940271735191345
],
[
-0.08851534873247147,
0.187900111079216,
0.03439272940158844
],
[
0.003600388066843152,
0.10805612802505493,
-0.016898522153496742
]
],
[
[
0.1402779072523117,
-0.045036133378744125,
-0.10811211168766022
],
[
-0.059508733451366425,
0.01832372508943081,
-0.05183036997914314
],
[
0.10826938599348068,
-0.06282927095890045,
0.03682176396250725
]
]
],
[
[
[
0.05645134672522545,
-0.0072135599330067635,
0.062323544174432755
],
[
-0.1115293875336647,
0.07682274281978607,
0.04986369609832764
],
[
-0.140433669090271,
-0.14190088212490082,
0.11152772605419159
]
],
[
[
0.009303731843829155,
0.11634004861116409,
-0.18313978612422943
],
[
-0.13714395463466644,
-0.05618427321314812,
-0.0426386334002018
],
[
0.12291641533374786,
0.1923140436410904,
0.011060030199587345
]
],
[
[
-0.11494499444961548,
-0.1411823183298111,
0.13589797914028168
],
[
0.13147865235805511,
0.12400134652853012,
0.12771190702915192
],
[
0.01829906366765499,
-0.1629253625869751,
-0.15668891370296478
]
]
],
[
[
[
-0.1032700315117836,
-0.05501750111579895,
0.06064118444919586
],
[
0.0008782056975178421,
-0.039908554404973984,
0.09066659957170486
],
[
-0.1046806201338768,
-0.002214358653873205,
0.06708790361881256
]
],
[
[
0.12498804926872253,
0.1066628098487854,
-0.1179029792547226
],
[
0.050553109496831894,
0.07086951285600662,
-0.21029417216777802
],
[
0.04013964906334877,
-0.017655590549111366,
0.043827593326568604
]
],
[
[
-0.08029212802648544,
0.012313324958086014,
0.09347953647375107
],
[
0.04562140256166458,
-0.13574029505252838,
0.10785865038633347
],
[
0.048649534583091736,
0.05621209368109703,
-0.14508932828903198
]
]
],
[
[
[
0.06921554356813431,
0.0034961814526468515,
0.03758104890584946
],
[
-0.03021182119846344,
-0.10491933673620224,
-0.025273257866501808
],
[
0.10335355252027512,
-0.10442712903022766,
-0.0729491263628006
]
],
[
[
0.059765368700027466,
-0.08870016783475876,
-0.08275976777076721
],
[
-0.20602479577064514,
0.20201939344406128,
0.07396813482046127
],
[
0.08611077815294266,
-0.0007996678468771279,
0.08000455051660538
]
],
[
[
0.020546820014715195,
-0.026349227875471115,
-0.0810263529419899
],
[
0.09846831858158112,
0.09514221549034119,
0.09711373597383499
],
[
-0.12603358924388885,
-0.1099579930305481,
0.020489294081926346
]
]
],
[
[
[
0.01854783669114113,
0.030238090083003044,
-0.10241882503032684
],
[
0.1424708366394043,
-0.27562859654426575,
-0.014495352283120155
],
[
0.036081064492464066,
0.11439040303230286,
-0.07760100066661835
]
],
[
[
0.06623511016368866,
0.15723302960395813,
0.07849039882421494
],
[
-0.014737148769199848,
0.16099505126476288,
0.08986867219209671
],
[
-0.12601684033870697,
-0.15524357557296753,
-0.10121837258338928
]
],
[
[
-0.11262743920087814,
-0.024934129789471626,
-0.11035467684268951
],
[
-0.09220755100250244,
0.11536464095115662,
-0.12837298214435577
],
[
-0.010839843191206455,
0.1312876045703888,
0.21236935257911682
]
]
],
[
[
[
-0.011154498904943466,
0.03172758221626282,
-0.09598419815301895
],
[
0.16960139572620392,
-0.16482649743556976,
-0.11418375372886658
],
[
0.011347188614308834,
0.1348397433757782,
-0.0040391674265265465
]
],
[
[
-0.08601118624210358,
-0.03510359674692154,
0.01415554340928793
],
[
0.16628393530845642,
0.14896604418754578,
-0.10178609937429428
],
[
0.00020303433120716363,
-0.1025189682841301,
0.1415400356054306
]
],
[
[
0.12238337844610214,
0.010471451096236706,
0.10255874693393707
],
[
-0.20777960121631622,
0.0776585191488266,
-0.006036710925400257
],
[
-0.09073319286108017,
0.019726688042283058,
-0.1453867405653
]
]
],
[
[
[
-0.05359988287091255,
-0.012720691971480846,
-0.026009414345026016
],
[
0.1828247308731079,
-0.24665522575378418,
0.14880873262882233
],
[
0.0620814748108387,
-0.09617739915847778,
0.0385945625603199
]
],
[
[
0.0641244575381279,
0.08060671389102936,
-0.010983392596244812
],
[
-0.1258947253227234,
0.22993500530719757,
-0.13576631247997284
],
[
0.015293512493371964,
-0.10790760815143585,
-0.01790604740381241
]
],
[
[
0.010511866770684719,
-0.10859064757823944,
0.011667899787425995
],
[
-0.20051084458827972,
-0.11110477149486542,
0.1663743555545807
],
[
0.04328877478837967,
0.20276136696338654,
-0.03139040991663933
]
]
],
[
[
[
-0.08214603364467621,
0.17571921646595,
-0.07885171473026276
],
[
-0.06861291825771332,
0.24642673134803772,
-0.04498182237148285
],
[
0.03829728066921234,
-0.15178939700126648,
0.038030724972486496
]
],
[
[
0.07444427162408829,
-0.10471238940954208,
-0.1061316654086113
],
[
-0.054418668150901794,
0.3276248872280121,
0.058245908468961716
],
[
-0.0024041763972491026,
-0.20875313878059387,
-0.02584974281489849
]
],
[
[
-0.05765201151371002,
-0.05637403577566147,
-0.04678114131093025
],
[
-0.061844393610954285,
0.2365606725215912,
-0.07261601090431213
],
[
0.09886016696691513,
-0.07360292226076126,
-0.007426167838275433
]
]
],
[
[
[
0.07843159884214401,
0.021695297211408615,
-0.06417714804410934
],
[
0.06944406032562256,
-0.0761459544301033,
0.020805416628718376
],
[
0.08590250462293625,
0.08750717341899872,
-0.08993066847324371
]
],
[
[
0.0030986021738499403,
-0.16471999883651733,
0.16878385841846466
],
[
0.06367269158363342,
-0.015876341611146927,
-0.22433476150035858
],
[
0.010092329233884811,
0.055652838200330734,
-0.06365372985601425
]
],
[
[
-0.11745476722717285,
0.2052370309829712,
-0.0840909481048584
],
[
-0.23456692695617676,
0.21329057216644287,
0.22377483546733856
],
[
-0.05656507983803749,
-0.1757998764514923,
0.16564589738845825
]
]
],
[
[
[
-0.011825020425021648,
0.1108827143907547,
0.048159170895814896
],
[
0.030306139960885048,
-0.026440558955073357,
-0.026277391240000725
],
[
-0.06332006305456161,
0.10379692167043686,
-0.15774808824062347
]
],
[
[
-0.03578920662403107,
-0.025504250079393387,
-0.0594065822660923
],
[
0.04783303290605545,
-0.15520961582660675,
-0.0063747684471309185
],
[
0.12846574187278748,
0.02779768407344818,
0.041468508541584015
]
],
[
[
0.03416845202445984,
-0.05969255417585373,
0.024367164820432663
],
[
-0.1435726433992386,
0.1769893914461136,
0.0052410997450351715
],
[
0.003334824228659272,
-0.13106289505958557,
0.12760306894779205
]
]
],
[
[
[
0.05233348533511162,
0.020757406949996948,
-0.06231965124607086
],
[
-0.0842377319931984,
-0.05792137235403061,
0.12795943021774292
],
[
0.043275296688079834,
-0.15125802159309387,
0.11123857647180557
]
],
[
[
-0.02714580111205578,
-0.0004937550402246416,
0.007994651794433594
],
[
0.17756932973861694,
0.011572614312171936,
-0.05804156884551048
],
[
-0.0537460632622242,
0.014730104245245457,
-0.03459228202700615
]
],
[
[
-0.055714674293994904,
0.08417781442403793,
-0.06695382297039032
],
[
-0.12559284269809723,
0.12669523060321808,
-0.05116967484354973
],
[
0.03134379908442497,
0.06829103827476501,
-0.0363086499273777
]
]
],
[
[
[
-0.041687238961458206,
-0.054961107671260834,
0.15559035539627075
],
[
0.042081765830516815,
-0.05712388828396797,
-0.15751351416110992
],
[
-0.08281584829092026,
0.05521838739514351,
-0.003921112976968288
]
],
[
[
0.14549891650676727,
0.02008226327598095,
-0.1511932760477066
],
[
-0.012856516055762768,
0.10186599940061569,
0.03333118557929993
],
[
0.09950533509254456,
-0.08245465904474258,
0.001364567899145186
]
],
[
[
-0.09623180329799652,
0.051723282784223557,
0.006085526663810015
],
[
-0.180763378739357,
0.04577990993857384,
0.13300760090351105
],
[
0.08624304085969925,
-0.06844955682754517,
0.0019050529226660728
]
]
],
[
[
[
-0.013893648982048035,
-0.10817684978246689,
0.041163329035043716
],
[
-0.029028715565800667,
-0.13880470395088196,
-0.06400219351053238
],
[
0.04142183065414429,
-0.0003115155268460512,
-0.0958375334739685
]
],
[
[
0.15849699079990387,
0.09750355035066605,
-0.10277839004993439
],
[
-0.0040505616925656796,
0.18290673196315765,
0.0017642491729930043
],
[
-0.08974030613899231,
-0.02455025166273117,
0.11239562928676605
]
],
[
[
-0.11376920342445374,
-0.1073489859700203,
0.038758859038352966
],
[
-0.012885398231446743,
0.05718284845352173,
-0.0811082124710083
],
[
0.060905665159225464,
-0.028389155864715576,
0.07299232482910156
]
]
],
[
[
[
-0.16131837666034698,
-0.09264485538005829,
0.17426925897598267
],
[
-0.020800111815333366,
-0.08348432928323746,
0.23064950108528137
],
[
-0.10546548664569855,
-0.0340806320309639,
0.00958940852433443
]
],
[
[
0.14934216439723969,
0.04026856645941734,
-0.16266608238220215
],
[
0.10842520743608475,
-0.07987920194864273,
-0.08576919883489609
],
[
0.02643882855772972,
0.14897587895393372,
-0.004860974382609129
]
],
[
[
0.022202912718057632,
0.13931097090244293,
-0.01602492295205593
],
[
-0.16228435933589935,
0.07299471646547318,
-0.07729215174913406
],
[
0.09793201833963394,
-0.013674929738044739,
-0.09869228303432465
]
]
],
[
[
[
0.002985169878229499,
-0.0909486785531044,
0.001832066336646676
],
[
-0.13586167991161346,
-0.019090697169303894,
0.06284639984369278
],
[
0.16394568979740143,
0.007780758664011955,
-0.021659720689058304
]
],
[
[
-0.06802844256162643,
0.10843569785356522,
0.1367781162261963
],
[
-0.042693350464105606,
0.14673791825771332,
-0.22894641757011414
],
[
-0.1119377464056015,
0.09609126299619675,
0.11565931886434555
]
],
[
[
0.09709563851356506,
-0.157473623752594,
-0.08798515796661377
],
[
0.00046148343244567513,
0.20074808597564697,
0.014015651308000088
],
[
-0.04538882523775101,
-0.06258674710988998,
-0.09895884990692139
]
]
],
[
[
[
-0.04305846616625786,
-0.22617584466934204,
0.1033068522810936
],
[
0.024290792644023895,
0.3087215721607208,
-0.2560541331768036
],
[
0.06531315296888351,
-0.011829685419797897,
-0.007842574268579483
]
],
[
[
-0.10248228162527084,
0.15329937636852264,
0.09736830741167068
],
[
0.011260157451033592,
-0.07737557590007782,
0.18712517619132996
],
[
0.029707293957471848,
-0.15773122012615204,
-0.019828040152788162
]
],
[
[
0.1359614133834839,
-0.025415947660803795,
-0.13019336760044098
],
[
-0.043719444423913956,
-0.1064455583691597,
-0.05446023494005203
],
[
0.008033557794988155,
0.03094525635242462,
0.09039232134819031
]
]
],
[
[
[
-0.1363888531923294,
0.06135674566030502,
0.06182747706770897
],
[
0.020947232842445374,
0.0886659249663353,
0.023071089759469032
],
[
-0.019622869789600372,
0.055912651121616364,
-0.0846606120467186
]
],
[
[
-0.11272352933883667,
0.057687681168317795,
-0.04091470688581467
],
[
-0.08089454472064972,
-0.019849315285682678,
0.0653122141957283
],
[
0.15863406658172607,
-0.08427323400974274,
-0.028862513601779938
]
],
[
[
0.17756333947181702,
-0.11062460392713547,
-0.01647641882300377
],
[
-0.026350069791078568,
0.13413585722446442,
-0.06482557952404022
],
[
-0.08070918172597885,
-0.07775097340345383,
0.10841681063175201
]
]
],
[
[
[
0.09775400161743164,
0.03409948572516441,
0.04735919088125229
],
[
-0.22066469490528107,
0.24193187057971954,
-0.18285039067268372
],
[
0.09296318888664246,
-0.18580719828605652,
0.001849131309427321
]
],
[
[
-0.1867041289806366,
-0.1503317952156067,
0.16988548636436462
],
[
0.12701189517974854,
0.02542719803750515,
0.15193815529346466
],
[
0.008368142880499363,
-0.13734056055545807,
-0.04480521380901337
]
],
[
[
0.0961504578590393,
0.08103154599666595,
-0.14084622263908386
],
[
0.11834550648927689,
-0.043135132640600204,
-0.011536291800439358
],
[
0.06235809624195099,
0.1124865710735321,
-0.07857275009155273
]
]
],
[
[
[
0.13378432393074036,
-0.0794224739074707,
0.07996232062578201
],
[
-0.02874848246574402,
-0.16162262856960297,
-0.06959685683250427
],
[
-0.017575450241565704,
0.049448926001787186,
-0.024284232407808304
]
],
[
[
0.08278753608465195,
-0.17364272475242615,
0.03869466483592987
],
[
-0.026790976524353027,
0.1805267482995987,
0.12603628635406494
],
[
-0.05485767871141434,
0.011015079915523529,
-0.06285082548856735
]
],
[
[
-0.14140303432941437,
0.11764515191316605,
-0.052267253398895264
],
[
-0.10883374512195587,
0.01568596065044403,
0.0602380596101284
],
[
0.09008676558732986,
0.046690087765455246,
-0.06425929814577103
]
]
],
[
[
[
-0.007564108353108168,
0.1696506291627884,
-0.14091190695762634
],
[
0.053251441568136215,
-0.16769710183143616,
0.11641800403594971
],
[
0.11010216176509857,
-0.10491330176591873,
-0.04951709881424904
]
],
[
[
-0.017199194058775902,
-0.0836796835064888,
0.1433950513601303
],
[
0.11380964517593384,
0.014782789163291454,
-0.06868897378444672
],
[
-0.033553436398506165,
0.20865949988365173,
-0.04285752773284912
]
],
[
[
-0.118207186460495,
0.07569031417369843,
0.00700409896671772
],
[
0.0820668414235115,
-0.11988607048988342,
-0.0800984799861908
],
[
0.025976009666919708,
-0.13474024832248688,
-0.052694372832775116
]
]
],
[
[
[
-0.13359226286411285,
-0.14252136647701263,
-0.09614048153162003
],
[
0.11334164440631866,
0.14396290481090546,
0.004066004417836666
],
[
0.02667642943561077,
0.03410281613469124,
-0.07381623983383179
]
],
[
[
0.09340056031942368,
-0.1579424887895584,
0.11309166997671127
],
[
-0.11498688161373138,
-0.1326378732919693,
-0.10539925843477249
],
[
-0.04261064529418945,
-0.019426807761192322,
-0.03548228740692139
]
],
[
[
0.0950210839509964,
0.09657874703407288,
-0.06480919569730759
],
[
-0.17942194640636444,
-0.09261935949325562,
-0.10481449961662292
],
[
0.05398251488804817,
-0.1007370874285698,
0.07865974307060242
]
]
],
[
[
[
0.08886424452066422,
-0.15197907388210297,
-0.07395529747009277
],
[
-0.08791828900575638,
0.18492965400218964,
-0.15627598762512207
],
[
-0.055754054337739944,
0.0830339565873146,
0.13252317905426025
]
],
[
[
-0.17506703734397888,
-0.07157125324010849,
0.08816630393266678
],
[
0.15878888964653015,
0.1927289068698883,
0.11742756515741348
],
[
-0.09804610162973404,
-0.18630632758140564,
-0.016590682789683342
]
],
[
[
0.14539965987205505,
0.1347724199295044,
0.04233398661017418
],
[
-0.14148585498332977,
-0.3118021786212921,
-0.0054198699072003365
],
[
0.13871470093727112,
0.061440639197826385,
-0.07333892583847046
]
]
],
[
[
[
0.05600469931960106,
-0.042258575558662415,
-0.03929063677787781
],
[
-0.044380851089954376,
-0.20610445737838745,
0.19852212071418762
],
[
0.07061269879341125,
-0.03735433891415596,
0.04383060336112976
]
],
[
[
0.037345170974731445,
0.10035674273967743,
-0.0029148522298783064
],
[
-0.11222532391548157,
0.09877729415893555,
-0.18440741300582886
],
[
0.04496777430176735,
0.010783286765217781,
-0.012342982925474644
]
],
[
[
-0.08826819807291031,
-0.009369732812047005,
-0.01243601180613041
],
[
0.17154686152935028,
0.059062886983156204,
0.03688756749033928
],
[
-0.12662531435489655,
-0.005310985259711742,
-0.012307176366448402
]
]
],
[
[
[
0.06545881181955338,
-0.13437522947788239,
0.002174526220187545
],
[
0.09098370373249054,
-0.12642496824264526,
0.13341373205184937
],
[
0.020079821348190308,
-0.004019389394670725,
-0.07220466434955597
]
],
[
[
-0.13234803080558777,
0.02070542238652706,
-0.01528986357152462
],
[
0.18771764636039734,
-0.2030854970216751,
0.14985503256320953
],
[
0.034633051604032516,
-0.03975329175591469,
-0.0028155334293842316
]
],
[
[
0.14562217891216278,
-0.11163323372602463,
0.03861333057284355
],
[
-0.04377535358071327,
-0.18196633458137512,
0.004450704902410507
],
[
0.06307817250490189,
0.08848973363637924,
0.03270865976810455
]
]
],
[
[
[
0.07757535576820374,
-0.09166485071182251,
0.029011372476816177
],
[
-0.113344706594944,
-0.20106631517410278,
0.1991121768951416
],
[
0.10823402553796768,
-0.0007914330926723778,
0.007450143340975046
]
],
[
[
0.08968058228492737,
-0.018347473815083504,
-0.012093446217477322
],
[
-0.13479745388031006,
0.07922957837581635,
-0.05401472747325897
],
[
-0.07363041490316391,
0.10809393972158432,
0.06389226019382477
]
],
[
[
-0.1018892303109169,
-0.0841369703412056,
0.01419755443930626
],
[
0.23940329253673553,
0.09465888142585754,
-0.12577247619628906
],
[
-0.09782348573207855,
0.07411561906337738,
-0.059162598103284836
]
]
],
[
[
[
0.07821661233901978,
-0.14536938071250916,
0.13492721319198608
],
[
-0.25065314769744873,
0.02081998810172081,
0.08961939811706543
],
[
0.12939897179603577,
-0.15851391851902008,
0.09424028545618057
]
],
[
[
0.06974788755178452,
0.050635162740945816,
-0.03851664811372757
],
[
0.21791189908981323,
-0.07856129854917526,
0.04317060485482216
],
[
-0.13568492233753204,
0.10208387672901154,
-0.16094116866588593
]
],
[
[
-0.055997226387262344,
-0.05696198716759682,
-0.06197108328342438
],
[
-0.03591368347406387,
0.166880801320076,
-0.15914927423000336
],
[
-0.0004951033624820411,
0.0637555792927742,
0.09803933650255203
]
]
],
[
[
[
-0.10500428825616837,
-0.09603575617074966,
-0.04833558201789856
],
[
0.028279537335038185,
0.06424498558044434,
0.0510287769138813
],
[
0.06270775943994522,
0.10000579059123993,
-0.03545936942100525
]
],
[
[
-0.06169617548584938,
-0.023037748411297798,
0.16157305240631104
],
[
-0.05061064660549164,
0.17621608078479767,
0.027916548773646355
],
[
-0.01013095024973154,
-0.1924087256193161,
0.028430595993995667
]
],
[
[
0.05404460430145264,
0.10579122602939606,
-0.07378728687763214
],
[
0.05537891015410423,
-0.1845281720161438,
-0.055249519646167755
],
[
0.06181754171848297,
-0.05258578434586525,
-0.053272657096385956
]
]
],
[
[
[
0.06790749728679657,
-0.2496253103017807,
-0.05535651370882988
],
[
0.016902098432183266,
0.2662854492664337,
0.12716829776763916
],
[
-0.026262864470481873,
0.04472590610384941,
-0.08899520337581635
]
],
[
[
0.02664988487958908,
-0.004133256617933512,
-0.039295971393585205
],
[
-0.042629752308130264,
-0.17963595688343048,
0.032736215740442276
],
[
0.09114253520965576,
0.11249692738056183,
-0.05371394753456116
]
],
[
[
-0.034266866743564606,
0.2263668328523636,
0.03959360718727112
],
[
-0.05050941929221153,
-0.11045290529727936,
-0.1023290827870369
],
[
-0.048370230942964554,
-0.12031906843185425,
0.16548803448677063
]
]
],
[
[
[
-0.019355056807398796,
-0.021196255460381508,
0.1380344182252884
],
[
0.04155595600605011,
-0.025986967608332634,
-0.08355231583118439
],
[
-0.07388054579496384,
0.034560006111860275,
-0.042467061430215836
]
],
[
[
-0.024672655388712883,
-0.03444951772689819,
0.06551729142665863
],
[
-0.026068702340126038,
-0.031049270182847977,
0.033898983150720596
],
[
0.04973774030804634,
0.02998794987797737,
0.02771676890552044
]
],
[
[
0.0643649473786354,
0.10754198580980301,
-0.23191940784454346
],
[
0.01996891386806965,
0.005392252001911402,
0.03312399610877037
],
[
0.04498005285859108,
-0.15125492215156555,
0.10015572607517242
]
]
],
[
[
[
-0.04203297197818756,
-0.03220699727535248,
0.1433088481426239
],
[
0.15302938222885132,
-0.10420969873666763,
-0.11863428354263306
],
[
-0.0543232262134552,
0.08898887783288956,
-0.039738211780786514
]
],
[
[
0.09284205734729767,
0.010557614266872406,
-0.06502003222703934
],
[
-0.01096081268042326,
0.07100959867238998,
0.04194289818406105
],
[
-0.08871841430664062,
-0.06547071784734726,
0.07481652498245239
]
],
[
[
-0.006188074592500925,
-0.07231815159320831,
-0.07586970925331116
],
[
-0.13505735993385315,
0.17944902181625366,
0.025976331904530525
],
[
0.07977039366960526,
-0.043557215481996536,
-0.019636306911706924
]
]
],
[
[
[
-0.023905102163553238,
0.10662923008203506,
-0.14423900842666626
],
[
-0.04795154929161072,
0.15908358991146088,
-0.10432847589254379
],
[
0.12524975836277008,
-0.07160988450050354,
-0.017977282404899597
]
],
[
[
-0.09388893097639084,
0.015535936690866947,
0.10339506715536118
],
[
-0.05031896382570267,
-0.2551242709159851,
0.22849321365356445
],
[
0.002415789756923914,
0.2172979861497879,
-0.05788895860314369
]
],
[
[
-0.0509641207754612,
0.0639883354306221,
-0.007340157404541969
],
[
0.1603083461523056,
-0.0011316892923787236,
-0.13607163727283478
],
[
-0.03657995164394379,
-0.09903288632631302,
0.0538237988948822
]
]
],
[
[
[
0.026234960183501244,
-0.010845526121556759,
0.029842045158147812
],
[
-0.08852475136518478,
-0.10132254660129547,
-0.09469778090715408
],
[
-0.11751972138881683,
0.14584548771381378,
0.03717636689543724
]
],
[
[
0.1278218924999237,
-0.08093852549791336,
0.03971444442868233
],
[
-0.07481575757265091,
-0.17235149443149567,
0.13048256933689117
],
[
-0.054380062967538834,
0.09933143854141235,
0.035251159220933914
]
],
[
[
0.021473729982972145,
-0.02116275578737259,
-0.004653106443583965
],
[
-0.09456416219472885,
-0.11448924988508224,
0.17873217165470123
],
[
0.11877099424600601,
0.11505004018545151,
-0.10439044237136841
]
]
],
[
[
[
0.020181408151984215,
-0.11679694801568985,
-0.13842813670635223
],
[
0.056155599653720856,
-0.1024290919303894,
0.17407019436359406
],
[
-0.06592860072851181,
-0.06968852132558823,
0.16538649797439575
]
],
[
[
-0.01821753941476345,
0.22846433520317078,
0.18479810655117035
],
[
-0.08951131999492645,
-0.32109102606773376,
0.0322047583758831
],
[
0.026480264961719513,
-0.0006276580970734358,
-0.00823416281491518
]
],
[
[
-0.020896313712000847,
0.04924263432621956,
-0.16704517602920532
],
[
-0.007154358085244894,
0.30795833468437195,
-0.07423844933509827
],
[
0.12704677879810333,
-0.026357661932706833,
-0.15087077021598816
]
]
],
[
[
[
-0.09201063215732574,
0.1623387634754181,
-0.09076110273599625
],
[
0.10196750611066818,
-0.061909474432468414,
0.04253700003027916
],
[
0.012491816654801369,
0.0222227331250906,
-0.07115978002548218
]
],
[
[
-0.01743723638355732,
-0.13739047944545746,
0.1382453888654709
],
[
-0.010721604339778423,
-0.11574952304363251,
-0.01009940542280674
],
[
0.11408454179763794,
0.09644956141710281,
0.03836860880255699
]
],
[
[
0.02597067877650261,
-0.07619301229715347,
0.019403647631406784
],
[
-0.10111858695745468,
0.1234956756234169,
0.09996702522039413
],
[
-0.08995502442121506,
-0.033217139542102814,
-0.05797000229358673
]
]
],
[
[
[
0.1487635225057602,
0.00017870499868877232,
-0.002838487969711423
],
[
-0.16670922935009003,
-0.3862992525100708,
0.13649195432662964
],
[
-0.02726702392101288,
0.11205711960792542,
0.06770412623882294
]
],
[
[
-0.10047763586044312,
-0.017413189634680748,
0.08662661910057068
],
[
0.12662078440189362,
0.25612080097198486,
0.002722878474742174
],
[
-0.06228003278374672,
-0.14404188096523285,
-0.03343614563345909
]
],
[
[
-0.04840477183461189,
0.1289055198431015,
-0.1154121607542038
],
[
0.09081557393074036,
-0.08236321806907654,
-0.026829445734620094
],
[
-0.04501171037554741,
0.1315278559923172,
-0.07758843898773193
]
]
],
[
[
[
-0.05192165821790695,
0.1843985617160797,
-0.009915020316839218
],
[
0.12482310086488724,
-0.1243758276104927,
-0.11773231625556946
],
[
0.023437026888132095,
0.03513767942786217,
0.007607261184602976
]
],
[
[
-0.07504906505346298,
0.06632412225008011,
-0.03849256411194801
],
[
-0.02735145203769207,
-0.1347549706697464,
0.1460265815258026
],
[
-0.007815062999725342,
-0.1392393261194229,
0.0839090347290039
]
],
[
[
0.10622218996286392,
-0.15451368689537048,
0.06268329918384552
],
[
-0.03358101844787598,
-0.022591721266508102,
-0.0671720951795578
],
[
-0.003052780404686928,
0.1601482629776001,
-0.04536209627985954
]
]
],
[
[
[
0.05943875014781952,
0.02004857175052166,
0.10506799072027206
],
[
0.030881768092513084,
-0.07320494204759598,
-0.00491282157599926
],
[
-0.11841045320034027,
-0.04946601018309593,
0.012149100191891193
]
],
[
[
-0.13783156871795654,
-0.16399405896663666,
-0.15424615144729614
],
[
0.17172101140022278,
0.3119174540042877,
-0.11556626111268997
],
[
0.08204157650470734,
0.13053029775619507,
-0.047105573117733
]
],
[
[
0.09726013243198395,
0.1232307031750679,
0.13387611508369446
],
[
-0.10016033053398132,
-0.30867037177085876,
0.0054785823449492455
],
[
-0.06963241845369339,
-0.06063168868422508,
0.10000789910554886
]
]
],
[
[
[
0.0253433957695961,
0.19353492558002472,
0.042967554181814194
],
[
-0.018210191279649734,
0.16824893653392792,
0.06508190184831619
],
[
-0.13469401001930237,
-0.17783227562904358,
-0.14078772068023682
]
],
[
[
-0.0041908263228833675,
-0.08132878690958023,
-0.08575023710727692
],
[
-0.08104639500379562,
-0.2397557497024536,
0.0753866508603096
],
[
0.13519705832004547,
0.16781999170780182,
0.10860488563776016
]
],
[
[
-0.04809311777353287,
-0.10844056308269501,
-0.004065327811986208
],
[
0.025916697457432747,
0.06789474189281464,
0.06588105112314224
],
[
0.004594951402395964,
0.07096779346466064,
-0.08764094114303589
]
]
],
[
[
[
0.11238551139831543,
-0.06840674579143524,
0.07017017155885696
],
[
-0.10216458141803741,
0.06563583016395569,
-0.1486484408378601
],
[
0.020650401711463928,
-0.05718378722667694,
0.1290474683046341
]
],
[
[
-0.05718965455889702,
0.02025432512164116,
0.06338948011398315
],
[
0.1456880420446396,
-0.14747227728366852,
0.026577351614832878
],
[
0.0289770495146513,
0.05859051272273064,
-0.12421274185180664
]
],
[
[
-0.06489112228155136,
0.07323748618364334,
-0.13955414295196533
],
[
0.001403764239512384,
0.050754114985466,
0.10122507810592651
],
[
-0.06317900866270065,
-0.01308844517916441,
0.021984171122312546
]
]
],
[
[
[
0.04948177561163902,
0.11641988158226013,
-0.13814204931259155
],
[
-0.12178150564432144,
0.09358885139226913,
0.1260373890399933
],
[
-0.12271597981452942,
0.06555718928575516,
0.15209078788757324
]
],
[
[
0.1539170891046524,
-0.09928857535123825,
0.04157643765211105
],
[
0.06354053318500519,
-0.19508954882621765,
-0.13765400648117065
],
[
0.0015299139777198434,
0.029933974146842957,
-0.11546429991722107
]
],
[
[
-0.01876051351428032,
-0.1521615982055664,
-0.041688352823257446
],
[
0.09016893059015274,
0.16130413115024567,
0.10853307694196701
],
[
0.029623351991176605,
-0.01649056375026703,
-0.04302417114377022
]
]
],
[
[
[
0.12139908969402313,
0.018520310521125793,
-0.03673796355724335
],
[
0.16956914961338043,
-0.23435451090335846,
-0.0755145475268364
],
[
0.037316981703042984,
0.15042813122272491,
-0.11721603572368622
]
],
[
[
-0.0966874361038208,
-0.014108428731560707,
0.07369515299797058
],
[
-0.11786609888076782,
0.01622622460126877,
0.0344977080821991
],
[
-0.16455355286598206,
0.08460072427988052,
0.1777959018945694
]
],
[
[
-0.021555695682764053,
-0.0020926278084516525,
-0.06717054545879364
],
[
-0.009839634411036968,
0.2503705322742462,
-0.053420551121234894
],
[
0.1177399531006813,
-0.22780366241931915,
-0.04898492991924286
]
]
],
[
[
[
0.02181740291416645,
-0.07334738969802856,
-0.04676036536693573
],
[
0.08646262437105179,
0.10235972702503204,
-0.02433779276907444
],
[
-0.09520692378282547,
0.0508112758398056,
-0.017605716362595558
]
],
[
[
-0.04011360928416252,
-0.09833037853240967,
-0.005992351099848747
],
[
-0.06365842372179031,
-0.05699353665113449,
0.17114171385765076
],
[
0.012737845070660114,
0.04418827220797539,
-0.009350606240332127
]
],
[
[
0.03925871476531029,
0.15042969584465027,
0.03215663880109787
],
[
0.06484883278608322,
-0.14020362496376038,
-0.14736029505729675
],
[
0.052400507032871246,
-0.0260212030261755,
0.012727713212370872
]
]
],
[
[
[
0.06812255084514618,
-0.10795283317565918,
0.09133176505565643
],
[
0.05650326982140541,
0.06747271120548248,
-0.09675546735525131
],
[
0.03459788113832474,
-0.0367635115981102,
0.09078773856163025
]
],
[
[
-0.018083438277244568,
0.006585946772247553,
0.05889170616865158
],
[
-0.13253119587898254,
-0.1707562506198883,
-0.08106838166713715
],
[
-0.07704631239175797,
0.043701861053705215,
0.02643834613263607
]
],
[
[
-0.032127685844898224,
0.13130304217338562,
-0.13034459948539734
],
[
0.09064201265573502,
0.08743513375520706,
0.11757020652294159
],
[
0.03516210988163948,
-0.10447392612695694,
-0.02912452444434166
]
]
],
[
[
[
0.061664093285799026,
-0.06418141722679138,
-0.09639415889978409
],
[
0.10004547983407974,
0.15413671731948853,
0.01576828770339489
],
[
0.0004599922685883939,
-0.10020504891872406,
0.03072381392121315
]
],
[
[
0.012966296635568142,
-0.1394987851381302,
0.09968933463096619
],
[
-0.16829060018062592,
-0.1268886923789978,
-0.10597500950098038
],
[
0.12521998584270477,
-0.04466170817613602,
0.13922935724258423
]
],
[
[
0.06693372130393982,
-0.03383136913180351,
-0.048264384269714355
],
[
-0.08213739097118378,
0.2677789330482483,
-0.06491203606128693
],
[
-0.0893225371837616,
0.12544091045856476,
-0.05814136192202568
]
]
],
[
[
[
0.11798249185085297,
0.1798599362373352,
0.07339378446340561
],
[
-0.1306024044752121,
-0.2831723392009735,
-0.028720567002892494
],
[
0.05348629504442215,
0.03906269744038582,
0.04683368280529976
]
],
[
[
0.007026141043752432,
-0.13469694554805756,
-0.06780504435300827
],
[
-0.06087798997759819,
0.18194101750850677,
-0.060137342661619186
],
[
-0.04223844036459923,
0.13817700743675232,
-0.03786106035113335
]
],
[
[
-0.09149166196584702,
-0.0920805111527443,
-0.0436028353869915
],
[
0.09504809230566025,
0.10515753924846649,
0.014231035485863686
],
[
0.044168099761009216,
-0.07459957152605057,
0.026870986446738243
]
]
],
[
[
[
0.0626559779047966,
0.1339496225118637,
-0.10229116678237915
],
[
-0.059170741587877274,
0.09827231615781784,
-0.15700949728488922
],
[
-0.030328549444675446,
0.04333452880382538,
0.009209825657308102
]
],
[
[
0.019889211282134056,
-0.11916269361972809,
0.06240534409880638
],
[
0.1355368047952652,
-0.04259162023663521,
-0.11692176014184952
],
[
0.06358662247657776,
0.07410509884357452,
0.09111932665109634
]
],
[
[
-0.07789051532745361,
-0.12113838642835617,
0.14957332611083984
],
[
-0.09752661734819412,
0.1848890781402588,
-0.0036038607358932495
],
[
-0.005180813372135162,
-0.17432792484760284,
0.020115220919251442
]
]
],
[
[
[
0.07679225504398346,
-0.1236969605088234,
0.09270859509706497
],
[
0.05218442156910896,
-0.024966197088360786,
-0.08037713915109634
],
[
0.04389069229364395,
-0.12986527383327484,
0.029990144073963165
]
],
[
[
0.0616452731192112,
0.1224716305732727,
-0.05571209639310837
],
[
0.0028004685882478952,
-0.26420632004737854,
0.11842080950737
],
[
0.017806628718972206,
-0.03949600085616112,
0.08776625245809555
]
],
[
[
-0.08965665847063065,
-0.020852413028478622,
0.09037184715270996
],
[
-0.1133536621928215,
0.27925246953964233,
-0.13445216417312622
],
[
-0.08420667797327042,
0.1737573742866516,
-0.10537680238485336
]
]
],
[
[
[
-0.06697121262550354,
-0.15017443895339966,
-0.06751179695129395
],
[
-0.1175176352262497,
0.062317073345184326,
0.09648976475000381
],
[
0.12277267128229141,
-0.023776032030582428,
0.11837614327669144
]
],
[
[
0.09303880482912064,
0.11326240003108978,
0.046652551740407944
],
[
-0.05403970927000046,
0.041807763278484344,
-0.081409752368927
],
[
-0.03824726492166519,
-0.06123235449194908,
-0.08706460148096085
]
],
[
[
-0.12004546076059341,
0.141900897026062,
0.08873637020587921
],
[
0.16179324686527252,
-0.20422892272472382,
0.06853087991476059
],
[
-0.031440041959285736,
0.0286030862480402,
-0.09845432639122009
]
]
],
[
[
[
0.04325181245803833,
-0.09693247824907303,
-0.11542806774377823
],
[
0.043054837733507156,
-0.03232107311487198,
0.07741422206163406
],
[
0.08952782303094864,
-0.0852196216583252,
0.05298551172018051
]
],
[
[
0.013732374645769596,
0.06501800566911697,
-0.009409797377884388
],
[
-0.07565168291330338,
0.18709585070610046,
-0.14551788568496704
],
[
-0.03351401537656784,
-0.03321040794253349,
0.048576612025499344
]
],
[
[
-0.10379021614789963,
0.1352856308221817,
0.01095568761229515
],
[
-0.017667749896645546,
-0.17652444541454315,
0.0933094471693039
],
[
0.01837114430963993,
0.015395822934806347,
0.026815610006451607
]
]
],
[
[
[
-0.05165081471204758,
0.0403580479323864,
0.014716057106852531
],
[
0.10838840901851654,
-0.0014169549103826284,
0.03579182177782059
],
[
-0.019402291625738144,
0.09397895634174347,
-0.13455648720264435
]
],
[
[
-0.0380890853703022,
0.07773646712303162,
-0.05060859024524689
],
[
-0.056203752756118774,
-0.05573661997914314,
-0.05403752997517586
],
[
-0.11220057308673859,
0.09623320400714874,
0.10480457544326782
]
],
[
[
0.13739784061908722,
-0.056378692388534546,
-0.04303523898124695
],
[
-0.1504065990447998,
0.12865287065505981,
0.07083378732204437
],
[
0.16269586980342865,
-0.20688696205615997,
0.002415979513898492
]
]
],
[
[
[
0.025806622579693794,
0.09224643558263779,
0.10818314552307129
],
[
0.0430852510035038,
-0.10112102329730988,
-0.09650154411792755
],
[
-0.011661302298307419,
-0.10839511454105377,
-0.015179138630628586
]
],
[
[
-0.030793067067861557,
-0.14371854066848755,
-0.12218835204839706
],
[
-0.04633157700300217,
0.2305450290441513,
0.10321784019470215
],
[
-0.050317294895648956,
0.11942117661237717,
0.06477659940719604
]
],
[
[
0.02517889067530632,
0.10376846790313721,
-0.03935658186674118
],
[
0.029979746788740158,
-0.12472446262836456,
-0.04457290098071098
],
[
0.04687643051147461,
-0.012852169573307037,
-0.03229622170329094
]
]
],
[
[
[
-0.10805986821651459,
-0.11116667091846466,
0.025578396394848824
],
[
-0.05502753332257271,
0.08952852338552475,
0.18430031836032867
],
[
0.0512402318418026,
0.008300194516777992,
-0.05499592423439026
]
],
[
[
-0.08202367275953293,
-0.22249512374401093,
0.01868385262787342
],
[
-0.14402465522289276,
0.18654853105545044,
0.11631489545106888
],
[
-0.10164617747068405,
0.1843160092830658,
0.06923916190862656
]
],
[
[
-0.04684734344482422,
-0.13770371675491333,
0.012857935391366482
],
[
0.09555831551551819,
-0.05160464718937874,
0.07871530205011368
],
[
-0.09475218504667282,
0.12222377210855484,
0.05221077427268028
]
]
],
[
[
[
-0.011525887064635754,
-0.049094464629888535,
-0.011267457157373428
],
[
-0.06535016000270844,
-0.04665887728333473,
-0.08963670581579208
],
[
0.18651728332042694,
-0.0699935108423233,
0.13284295797348022
]
],
[
[
0.025194372981786728,
0.10978446155786514,
0.09290260821580887
],
[
-0.027047721669077873,
0.11205512285232544,
-0.01316918432712555
],
[
-0.15009120106697083,
0.10181381553411484,
-0.18192051351070404
]
],
[
[
0.016659706830978394,
-0.14425690472126007,
-0.03868723660707474
],
[
-0.013433719053864479,
0.04885423928499222,
0.13526353240013123
],
[
-0.0002553153899498284,
-0.02006504498422146,
-0.029889002442359924
]
]
],
[
[
[
0.01704542152583599,
0.1444237232208252,
-0.09652747213840485
],
[
-0.09880401194095612,
0.18237604200839996,
0.0782284289598465
],
[
-0.08039253205060959,
-0.1131344735622406,
0.009332334622740746
]
],
[
[
0.0707603469491005,
-0.2697257995605469,
0.05620650574564934
],
[
0.1770954579114914,
-0.3212035000324249,
0.044669874012470245
],
[
0.010396519675850868,
0.0537642240524292,
0.1108349934220314
]
],
[
[
-0.009384525008499622,
0.10296513140201569,
-0.02855941280722618
],
[
-0.012329366989433765,
0.16638879477977753,
-0.17897860705852509
],
[
-0.053271498531103134,
0.12043958902359009,
-0.047557082027196884
]
]
],
[
[
[
0.08694078028202057,
0.09006604552268982,
-0.1399107575416565
],
[
0.11696843057870865,
-0.19841818511486053,
-0.031191768124699593
],
[
-0.06751371920108795,
0.17161069810390472,
-0.0384400337934494
]
],
[
[
-0.021237701177597046,
-0.10053803026676178,
0.12991248071193695
],
[
-0.06143674999475479,
0.22412128746509552,
-0.1224019005894661
],
[
0.07688793540000916,
-0.22247037291526794,
0.08598887920379639
]
],
[
[
-0.12145423144102097,
0.005461880471557379,
0.08712901175022125
],
[
0.036583270877599716,
-0.041847288608551025,
0.048775773495435715
],
[
0.02296486869454384,
0.042262133210897446,
-0.08797039836645126
]
]
],
[
[
[
-0.0031630857847630978,
-0.18937262892723083,
-0.0014027801807969809
],
[
0.07347128540277481,
0.14586439728736877,
0.020073264837265015
],
[
0.031800154596567154,
0.012307940050959587,
-0.022523490712046623
]
],
[
[
-0.034439101815223694,
0.08701493591070175,
0.00887062307447195
],
[
-0.055295828729867935,
-0.27719733119010925,
0.1751447319984436
],
[
0.08015109598636627,
-0.026822559535503387,
0.058313965797424316
]
],
[
[
0.055951740592718124,
0.12737064063549042,
-0.02303520031273365
],
[
-0.13538959622383118,
0.15878668427467346,
-0.16923289000988007
],
[
-0.009990917518734932,
-0.031098920851945877,
-0.044330496340990067
]
]
],
[
[
[
-0.17664508521556854,
0.1024433895945549,
-0.03266981989145279
],
[
0.037463899701833725,
-0.2428746521472931,
0.18118275701999664
],
[
0.015396028757095337,
0.058103568851947784,
0.07184045016765594
]
],
[
[
0.11001766473054886,
-0.12784278392791748,
-0.018070077523589134
],
[
0.09346036612987518,
0.1640971451997757,
-0.06422990560531616
],
[
-0.05687675252556801,
-0.16248755156993866,
-0.08756407350301743
]
],
[
[
0.006786460522562265,
0.11756996065378189,
0.01036346610635519
],
[
-0.0601021870970726,
-0.0014359982451424003,
-0.12238624691963196
],
[
0.0021816594526171684,
0.08675146102905273,
0.05067524313926697
]
]
],
[
[
[
-0.03401665389537811,
-0.18612748384475708,
0.04811861366033554
],
[
0.1393023580312729,
0.17872945964336395,
-0.08863864094018936
],
[
-0.09740329533815384,
-0.048164792358875275,
0.027636738494038582
]
],
[
[
0.1384173333644867,
-0.02268379181623459,
0.02388460375368595
],
[
-0.027861526235938072,
-0.03672875091433525,
-0.14908607304096222
],
[
0.1868075132369995,
0.0009414805681444705,
-0.02767569199204445
]
],
[
[
-0.1334744095802307,
0.1621735692024231,
-0.05520278587937355
],
[
-0.1562066376209259,
0.12783411145210266,
0.12751753628253937
],
[
-0.04110962897539139,
-0.08623997122049332,
0.04734395071864128
]
]
],
[
[
[
0.019859395921230316,
-0.07907892018556595,
0.01829279586672783
],
[
-0.09247900545597076,
0.059578850865364075,
-0.07500725984573364
],
[
-0.04238223657011986,
0.16223476827144623,
0.08794000744819641
]
],
[
[
-0.011286945082247257,
0.07253237068653107,
-0.025830626487731934
],
[
0.0011993093648925424,
0.02031783200800419,
0.03981601446866989
],
[
-0.018330780789256096,
-0.08509011566638947,
-0.05910326912999153
]
],
[
[
0.07109609991312027,
-0.056041061878204346,
0.02317241206765175
],
[
0.024151962250471115,
-0.07107522338628769,
0.08975379914045334
],
[
0.037082914263010025,
-0.04382115602493286,
-0.032883040606975555
]
]
],
[
[
[
-0.0052742725238204,
-0.11080018430948257,
0.020014023408293724
],
[
0.07946670800447464,
-0.11746415495872498,
-0.028155634179711342
],
[
0.16998310387134552,
-0.01392313465476036,
0.01027812622487545
]
],
[
[
-0.11810296028852463,
-0.09780137240886688,
-0.08021095395088196
],
[
0.07901868969202042,
-0.20571020245552063,
0.12328450381755829
],
[
-0.10200399905443192,
0.24739941954612732,
-0.007240278646349907
]
],
[
[
-0.08620712161064148,
-0.025962896645069122,
0.0925961434841156
],
[
-0.07649605721235275,
-0.07916044443845749,
0.07014181464910507
],
[
0.1033039391040802,
0.09498805552721024,
-0.010764961130917072
]
]
],
[
[
[
-0.013612045906484127,
-0.16745591163635254,
0.022983741015195847
],
[
-0.13619443774223328,
0.38178762793540955,
-0.13004541397094727
],
[
0.13273917138576508,
-0.03817743808031082,
0.019122140482068062
]
],
[
[
-0.07440314441919327,
0.062044236809015274,
-0.004728929605334997
],
[
0.08118202537298203,
-0.09316638857126236,
-0.010750587098300457
],
[
-0.013566319830715656,
-0.0009155588340945542,
-0.08393065631389618
]
],
[
[
0.13855277001857758,
0.0795975923538208,
-0.019828297197818756
],
[
-0.03392918407917023,
-0.31327390670776367,
0.14140567183494568
],
[
-0.1365503966808319,
0.13523928821086884,
0.06924036890268326
]
]
],
[
[
[
-0.07903733104467392,
0.13889551162719727,
0.08664079755544662
],
[
0.004496540408581495,
-0.18765610456466675,
-0.1447003334760666
],
[
0.08086830377578735,
-0.10984647274017334,
0.02445216476917267
]
],
[
[
0.01479845680296421,
-0.04577796906232834,
-0.03677058219909668
],
[
0.026125986129045486,
-0.08092105388641357,
0.005521045532077551
],
[
0.061491768807172775,
0.14131729304790497,
0.08193705976009369
]
],
[
[
-0.012725799344480038,
0.12997372448444366,
-0.05472240597009659
],
[
-0.10475751012563705,
0.015022216364741325,
0.000835526967421174
],
[
-0.0863763839006424,
0.04208105802536011,
0.08941283822059631
]
]
],
[
[
[
-0.025680944323539734,
-0.03781924769282341,
-0.10379388183355331
],
[
-0.06905120611190796,
0.10137686133384705,
0.10333935916423798
],
[
0.06697660684585571,
-0.0712205246090889,
0.08662889152765274
]
],
[
[
-0.029077770188450813,
-0.0649610385298729,
0.18728020787239075
],
[
-0.09158264845609665,
-0.06532267481088638,
-0.01746736466884613
],
[
-0.15771958231925964,
0.05876424163579941,
0.07820703834295273
]
],
[
[
0.014568930491805077,
0.17589130997657776,
-0.08254244923591614
],
[
0.039894502609968185,
-0.12813976407051086,
-0.0729895755648613
],
[
0.15180276334285736,
0.05526753142476082,
-0.11474534869194031
]
]
],
[
[
[
0.09568323940038681,
0.1111212894320488,
-0.05363672599196434
],
[
0.08698847889900208,
-0.2256903499364853,
0.18922105431556702
],
[
-0.14636798202991486,
0.01386598963290453,
-7.258002733578905e-05
]
],
[
[
-0.21977755427360535,
-0.04679618030786514,
-0.003288031555712223
],
[
-0.10448511689901352,
0.2517807185649872,
-0.06175195425748825
],
[
0.10137587785720825,
-0.04379202425479889,
0.05259031802415848
]
],
[
[
0.08715017884969711,
0.06339860707521439,
0.024696068838238716
],
[
0.06737667322158813,
-0.06131939962506294,
-0.18162326514720917
],
[
0.10656215250492096,
-0.10342267900705338,
-0.01505363266915083
]
]
],
[
[
[
-0.07329043745994568,
0.017002621665596962,
0.047896936535835266
],
[
0.14795206487178802,
0.04856812581419945,
0.03586951643228531
],
[
0.09309380501508713,
-0.011216175742447376,
-0.024970615282654762
]
],
[
[
0.06009601429104805,
0.15764689445495605,
-0.06466066092252731
],
[
0.05566157400608063,
-0.07874298095703125,
0.0788452997803688
],
[
-0.1145743653178215,
-0.17215123772621155,
0.14954432845115662
]
],
[
[
-0.06571881473064423,
-0.08697805553674698,
-0.05662715435028076
],
[
-0.11564858257770538,
-0.046206314116716385,
-0.005602702032774687
],
[
-0.044493041932582855,
0.12916235625743866,
-0.035442471504211426
]
]
],
[
[
[
0.017053185030817986,
-0.15433679521083832,
-0.0475098192691803
],
[
-0.0171795766800642,
0.20200656354427338,
-0.08363216370344162
],
[
0.022175582125782967,
-0.012118836864829063,
0.06175307556986809
]
],
[
[
-0.0059766569174826145,
0.020829789340496063,
-0.11973989754915237
],
[
-0.03473997861146927,
0.14331012964248657,
0.04817473888397217
],
[
0.04385703429579735,
0.08093823492527008,
-0.01684187911450863
]
],
[
[
0.05829304829239845,
0.03763864189386368,
0.1906358301639557
],
[
-0.0853264331817627,
-0.15251806378364563,
-0.08301203697919846
],
[
-0.037421490997076035,
-0.14089104533195496,
0.022703159600496292
]
]
],
[
[
[
-0.04351125285029411,
0.06528763473033905,
0.013437304645776749
],
[
-0.15267957746982574,
0.2800009250640869,
-0.08857309818267822
],
[
-0.17142751812934875,
0.06279425323009491,
0.059911999851465225
]
],
[
[
-0.005949171259999275,
-0.06806202232837677,
-0.08410203456878662
],
[
0.18965019285678864,
-0.22202560305595398,
-0.024293769150972366
],
[
0.04664028063416481,
0.030059708282351494,
0.07116307318210602
]
],
[
[
-0.04833643138408661,
0.0549941286444664,
0.10321041196584702
],
[
0.11615349352359772,
-0.27804437279701233,
0.15621419250965118
],
[
0.06749337911605835,
